tree
version=v4
num_class=6
num_tree_per_iteration=6
label_index=0
max_feature_idx=49
objective=multiclass num_class:6
feature_names=Column_0 Column_1 Column_2 Column_3 Column_4 Column_5 Column_6 Column_7 Column_8 Column_9 Column_10 Column_11 Column_12 Column_13 Column_14 Column_15 Column_16 Column_17 Column_18 Column_19 Column_20 Column_21 Column_22 Column_23 Column_24 Column_25 Column_26 Column_27 Column_28 Column_29 Column_30 Column_31 Column_32 Column_33 Column_34 Column_35 Column_36 Column_37 Column_38 Column_39 Column_40 Column_41 Column_42 Column_43 Column_44 Column_45 Column_46 Column_47 Column_48 Column_49
feature_infos=[0:1] [0:0.99999469148555797] [0:0.99486160454426842] [0:1] [0:1] [0:1] [0:1] [0:1] [0:0.9735449735449736] [0:1] [0:0.96153846153846156] [0:1] [0:1] [0:1] [0:0.99999999999999989] [0:1] [0:1] [0:0.94655556258388207] [0:1] [0:1] [0:0.99999469148555808] [0:1] [0:0.99634957134594782] [0:1] [0:1] [0:0.99970243079022969] [0:1.0000000000000002] [0:0.99999999999999989] [0:1] [0:0.39922480620155026] [0:0.99999968035787556] [0:1] [0:1] [0:1] [0:1] [0:0.96153846153846156] [0:1] [0:1] [0:1] none [0:1] [0:1] [0:1] [0:1] [0:1] [0:0.9735449735449736] [0:1] [0:1] [0:1] [0:1]
tree_sizes=3418 3445 3427 3412 3418 3402 3485 3486 3466 3497 3474 3457 3480 3487 3470 3495 3473 3468 3478 3491 3466 3496 3477 3477 3476 3493 3491 3495 3473 3477 3469 3499 3481 3489 3486 3493 3484 3516 3498 3500 3470 3476 3489 3515 3513 3510 3489 3497 3483 3508 3454 3521 3489 3485 3488 3518 3490 3526 3492 3483 3494 3520 3466 3526 3480 3489 3498 3507 3467 3528 3488 3473 3507 3521 3465 3536 3486 3508 3506 3525 3486 3525 3490 3514 3521 3515 3495 3527 3481 3510 3493 3512 3470 3537 3477 3517 3502 3510 3486 3536 3495 3493 3509 3527 3464 3544 3478 3496 3508 3520 3489 3533 3489 3490 3502 3497 3484 3530 3485 3490 3514 3524 3495 3537 3508 3490 3514 3497 3509 3551 3499 3500 3506 3519 3491 3539 3483 3492 3496 3501 3501 3528 3502 3489 3511 3506 3462 3542 3507 3504 3519 3542 3499 3532 3504 3496 3522 3517 3466 3533 3505 3511 3521 3542 3516 3521 3534 3498 3527 3540 3516 3526 3517 3490 3520 3535 3512 3534 3505 3500 3519 3544 3516 3547 3541 3503 3526 3545 3516 3535 3526 3516 3513 3508 3509 3551 3526 3514 3510 3533 3515 3574 3538 3518 3517 3518 3518 3547 3549 3527 3523 3533 3526 3539 3532 3524 3518 3557 3510 3532 3565 3518 3512 3531 3508 3547 3523 3538 3535 3510 3516 3539 3546 3524 3546 3516 3543 3568 3529 3524 3520 3525 3505 3540 3537 3534 3530 3532 3507 3588 3521 3535 3528 3515 3523 3565 3526 3546 3546 3489 3517 3548 3544 3549 3541 3549 3521 3563 3526 3542 3549 3520 3482 3552 3515 3540 3548 3535 3488 3517 3502 3560 3541 3531 3509 3547 3541 3568 3546 3519 3522 3532 3552 3558 3539 3514 3531 3538 3506 3556 3543 3522 3524 3549 3484 3570 3554 3499 3501 3539 3519 3566 3561 3501 3530 3518 3512 3544 3565 3499 3528 3564 3530 3554 3551 3540 3492 3512 3494 3548 3552 3486 3556 3544 3529 3570 3565 3506 3486 3505 3504 3577 3533 3533 3502 3580 3465 3569 3559 3540 3538 3541 3530 3585 3559 3476 3512 3586 3552 3581 3563 3504 3485 3519 3452 3602 3586 3503 3472 3543 3491 3593 3574 3522 3532 3549 3504 3584 3553 3538 3508 3532 3541 3588 3562 3504 3464 3564 3474 3583 3569 3565 3564 3537 3454 3585 3578 3487 3523 3520 3540 3590 3563 3515 3477 3542 3463 3604 3591 3503 3505 3546 3467 3580 3585 3514 3526 3550 3531 3601 3580 3501 3504 3512 3528 3598 3604 3482 3449 3556 3504 3598 3598 3525 3568 3542 3486 3611 3599 3491 3509 3563 3523 3609 3629 3535 3535 3518 3474 3609 3604 3482 3554 3578 3507 3608 3571 3538 3542 3559 3474 3624 3591 3504 3526 3542 3489 3612 3594 3535 3517 3562 3522 3620 3635 3504 3512 3519 3482 3628 3602 3542 3514 3546 3477 3630 3639 3506 3545 3551 3503 3645 3611 3459 3505 3572 3531 3641 3599 3539 3517 3517 3484 3639 3557 3512 3519 3575 3499 3641 3598 3449 3549 3575 3520 3658 3591 3479 3515 3553 3496 3649 3580 3548 3505 3568 3464 3645 3618 3458 3510 3549 3534 3652 3592 3564 3549 3563 3478 3655 3619 3521 3535 3568 3521 3651 3612 3488 3525 3552 3567 3651 3612 3526 3507 3547 3542 3649 3606 3563 3531 3557 3516 3643 3619 3485 3526 3518 3508 3664 3598 3462 3543 3568 3461 3667 3610 3546 3547 3521 3492 3665 3624 3469 3517 3568 3521 3663 3584 3528 3513 3532 3531 3679 3634 3522 3500 3525 3542 3677

Tree=0
num_leaves=31
num_cat=0
split_feature=33 41 32 0 42 17 30 6 42 14 17 17 14 31 14 2 33 4 31 30 30 18 30 9 27 5 4 7 43 30
split_gain=243463 38340.3 25608.8 4652.04 2126.2 1765.88 7619.72 1260.01 13110.7 8084.29 862.068 1972.55 1691.56 1289.39 1405.38 776.29 473.213 485.199 444.005 252.694 381.549 212.55 250.476 190.863 177.445 290.616 176.641 153.271 151.568 789.226
threshold=0.0050925875654626871 1.0000000180025095e-35 0.62323100100399575 1.0000000180025095e-35 1.0000000180025095e-35 1.2776126244382071e-06 0.99999926646465676 0.084197254132810262 1.0000000180025095e-35 0.63111269202164888 0.00062667146739958234 0.020117057692623019 0.33307672522420134 0.99998256484020331 1.0000000180025095e-35 1.505389293671344e-05 0.0087468341487840131 0.00094886363636360004 0.99998249709064824 0.99999926661756633 0.99999926669754979 0.0059102018183393289 0.99999926646465676 0.016105240372156753 0.0033781220306928093 0.00075202548550945016 0.0012244318181818001 0.024999999999999956 0.10869565217391301 0.99999926646465676
decision_type=2 2 2 2 2 2 2 2 2 2 2 2 2 2 2 2 2 2 2 2 2 2 2 2 2 2 2 2 2 2
left_child=1 3 5 -1 18 6 -2 8 9 19 28 12 13 14 21 -11 17 -13 -4 -5 -21 22 -12 -22 -14 -26 -10 -3 -7 -30
right_child=2 27 4 7 -6 10 -8 -9 26 15 11 16 24 -15 -16 -17 -18 -19 -20 20 23 -23 -24 -25 25 -27 -28 -29 29 -31
leaf_value=-1.2980673937400842 -1.2917594497567453 -1.2920980988251067 -1.3292607443344813 -1.2980100014984148 -1.8917594696389144 -1.2952569943827146 -1.8849171030344685 -1.8917537850352473 -1.8894698820016631 -1.8893446787307178 -1.3036030354139507 -1.8917594696389144 -1.3056176303267524 -1.8663638687160602 -1.3048226015628228 -1.3281990870384983 -1.3011688047508452 -1.2917594497567453 -1.8305964397738086 -1.8917594696389144 -1.3325325688071712 -1.4958360720627144 -1.8885153467553459 -1.7875453893218878 -1.8141148866456618 -1.2917594497567453 -1.2917594497567453 -1.8917594696389144 -1.2917594497567453 -1.6144482612382649
leaf_weight=135.65691930055618 808.98182699084282 1123.0455593466759 88.737880811095238 593.24284598231316 958.54845409095287 6633.0592529922724 295.74253499507904 47463.38152487576 11253.949637040496 446.92981366813183 8.0279389917850477 27.889855891466141 288.1578648686409 154.05236700177193 152.84777688980103 26.092453256249428 1748.1311305463314 26.081682026386261 22.056666687130928 17.431272774934769 83.949876397848129 22.829295337200165 83.169017434120178 10.356009930372236 19.112187385559082 24.058103248476982 4.9465259015560141 4.2785810977220526 402.0176505446434 93.403398171067238
leaf_count=606 3598 4996 405 2650 6049 29573 1860 299515 70939 2817 36 176 1294 960 686 119 7826 116 135 110 384 116 524 62 116 107 22 27 1788 509
internal_value=-1.79176 -1.87216 -1.37704 -1.883 -1.84382 -1.33077 -1.45055 -1.88433 -1.856 -1.53858 -1.3171 -1.36695 -1.50296 -1.636 -1.50303 -1.85839 -1.31017 -1.60181 -1.42907 -1.32399 -1.46194 -1.76872 -1.83703 -1.3825 -1.33394 -1.52301 -1.88921 -1.29437 -1.29924 -1.3526
internal_weight=73020.2 61163.3 11856.9 60035.9 1069.34 10787.6 1104.72 59900.3 12436.9 1178 9682.84 2554.36 752.255 420.926 266.874 473.022 1802.1 53.9715 110.795 704.98 111.737 114.026 91.197 94.3059 331.328 43.1703 11258.9 1127.32 7128.48 495.421
internal_count=438121 382247 55874 377224 6589 49285 5458 376618 77103 6142 43827 11957 3839 2322 1362 2936 8118 292 540 3206 556 676 560 446 1517 223 70961 5023 31870 2297
is_linear=0
shrinkage=1


Tree=1
num_leaves=31
num_cat=0
split_feature=34 30 14 21 30 4 6 14 14 30 4 1 14 6 24 1 19 14 16 49 19 7 4 6 4 37 4 30 30 30
split_gain=102787 13837.2 10287.4 10918.1 6621.46 3530.17 2627.98 2160.36 1555.29 906.883 904.142 760.029 755.131 5642.44 1269.83 657.294 713.626 626.733 546.003 519.106 3790.58 483.266 493.207 988.223 459.468 453.666 382.805 373.281 726.181 526.43
threshold=0.34137228260869562 0.9999992663211571 0.99797749373479383 6.4094038342834777e-07 0.99999926630939495 0.016460227272727203 0.31325301204819284 0.8215108348067458 0.99921433821388661 0.99999928019593454 0.0059147727272727008 1.0000000180025095e-35 0.82766463293231418 0.10184925749509667 1.0000000180025095e-35 1.2500426478656569e-08 6.6375585564289722e-07 0.79014104446933076 7.9592162091505017e-07 0.37218045112781956 1.0000000180025095e-35 0.61262376237623772 0.016460227272727203 0.40557579153824602 0.016096590909090856 0.0024323712621589005 0.016460227272727203 0.99999927631438434 0.99999926710217202 0.9999992668198775
decision_type=2 2 2 2 2 2 2 2 2 2 2 2 2 2 2 2 2 2 2 2 2 2 2 2 2 2 2 2 2 2
left_child=12 4 3 6 15 8 10 17 24 11 -3 -7 19 14 -14 -2 -17 -5 -19 -1 25 -8 23 -23 -4 -21 -6 28 29 -13
right_child=1 2 5 7 26 9 21 -9 -10 -11 -12 27 13 -15 -16 16 -18 18 -20 20 -22 22 -24 -25 -26 -27 -28 -29 -30 -31
leaf_value=-1.8895922061185693 -1.6259564501289994 -1.7832615119412203 -1.4274454866059016 -1.4704068404461903 -1.354698249027892 -1.4978645145262721 -1.8828226108001604 -1.4018277587327834 -1.3884134580105114 -1.4443767070398235 -1.4040738301013902 -1.633608411637018 -1.8512060516789688 -1.8769738693169813 -1.4461613632959882 -1.8224325165764654 -1.4905033358983171 -1.6195940940532361 -1.8287708593161482 -1.8778116909978031 -1.2941247939088996 -1.782455509492513 -1.8115321647575233 -1.5367374274596242 -1.7080327340103145 -1.4886344729110355 -1.4372363356886009 -1.6924502485045956 -1.4768948246172036 -1.8808306258123844
leaf_weight=37817.012869030237 674.27762478590012 87.632619291543961 76.380827218294144 182.55347487330437 682.8308436870575 405.0408541560173 776.65170335769653 850.01354813575745 961.09818676114082 263.52979704737663 222.64524480700493 8646.4432737529278 96.126669734716415 5948.2701516151428 397.30463311076164 452.58403748273849 75.588598072528839 416.76848629117012 178.11783188581467 1929.1648585796356 120.59261190891266 928.14510351419449 5694.5390591025352 198.71739363670349 247.3676241338253 30.425468444824219 3173.1327968537807 1103.8835932016373 296.33257189393044 86.998932212591171
leaf_count=216187 4255 553 482 1152 4309 2556 4901 5364 6065 1663 1405 54563 491 37442 2503 2856 477 2630 1124 12174 761 5857 35935 1254 1561 192 20024 6966 1870 549
internal_value=-1.79176 -1.6354 -1.67023 -1.74789 -1.48651 -1.60897 -1.79643 -1.51201 -1.45227 -1.62761 -1.51117 -1.63219 -1.88179 -1.85002 -1.52507 -1.69139 -1.77493 -1.63249 -1.68222 -1.88692 -1.83828 -1.80808 -1.79957 -1.73912 -1.64183 -1.87177 -1.42262 -1.63756 -1.63085 -1.63607
internal_weight=73020.2 26681.3 21622.9 9535.78 5058.41 12087.1 7908.33 1627.45 1284.85 10802.2 310.278 10538.7 46338.9 6441.7 493.431 1202.45 528.173 777.44 594.886 39897.2 2080.18 7598.05 6821.4 1126.86 323.748 1959.59 3855.96 10133.7 9029.77 8733.44
internal_count=438121 168371 136450 60175 31921 76275 49905 10270 8108 68167 1958 66504 269750 40436 2994 7588 3333 4906 3754 229314 13127 47947 43046 7111 2043 12366 24333 63948 56982 55112
is_linear=0
shrinkage=1


Tree=2
num_leaves=31
num_cat=0
split_feature=34 30 34 32 30 19 4 6 14 30 19 19 1 15 30 30 30 30 30 30 30 4 32 34 6 30 30 8 4 30
split_gain=132613 7154.69 6516.98 4109.74 2897.91 1364.88 1337.7 1610.67 833.836 835.244 644.442 2322.89 470.144 449.802 391.02 726.316 542.024 430.936 451.769 401.205 356.713 350.518 342.796 317.436 511.667 302.042 298.826 282.187 362.636 270.907
threshold=0.98743206521739124 0.9999992663211571 0.84069293478260876 0.89071584299131079 0.99999926630939495 7.4004963215328612e-07 0.016278409090909055 0.39885121882880364 0.99970301170734688 0.99999928019593454 6.6375585564289722e-07 1.9073444127663805e-07 1.3958809561460952e-06 0.69385815969053444 0.99999927631438434 0.99999926710217202 0.9999992668198775 0.99999927958429635 0.99999927996068905 0.99999926652346816 0.99999927894442875 0.014460227272727203 0.89071584299131079 0.34816576086956524 0.34085177920986276 0.99999927670018685 0.9999992663211571 0.36814253098499677 0.0059147727272727008 0.99999927894442875
decision_type=2 2 2 2 2 2 2 2 2 2 2 2 2 2 2 2 2 2 2 2 2 2 2 2 2 2 2 2 2 2
left_child=2 4 23 5 22 10 7 21 29 14 11 -3 13 -7 15 16 19 20 -19 -10 25 -4 -2 -1 27 -16 -9 28 -25 -5
right_child=1 3 6 8 -6 12 -8 26 9 -11 -12 -13 -14 -15 17 -17 -18 18 -20 -21 -22 -23 -24 24 -26 -27 -28 -29 -30 -31
leaf_value=-1.8912388348390508 -1.6961334278647586 -1.7193921193379014 -1.5474596505907232 -1.5106389683337007 -1.7516392447655542 -1.3632268893906656 -1.8040837096388047 -1.7096889701309212 -1.5501430794843427 -1.734524476541204 -1.7826065526668653 -1.383615333885704 -1.7132326300075067 -1.5621245600666021 -1.3866302268219164 -1.7104073731506784 -1.3026882869598766 -1.8493561519346882 -1.5208814310396588 -1.6902449123704006 -1.3187987571776436 -1.7591580503466306 -1.5333621863969376 -1.5747134149199875 -1.8907529917105974 -1.6211006223719835 -1.4834490295118268 -1.6371916237231505 -1.8539825198360784 -1.4286641687433512
leaf_weight=46384.690310224891 152.12848153710365 1346.4977364093065 84.780205145478249 4146.3083207458258 3172.9740304499865 171.6206344217062 1801.2869070321321 68.933003917336464 8405.7313557863235 249.74321261048317 709.92927202582359 243.24802656471729 122.49466513097286 336.90117427706718 111.24432384967804 295.69867604970932 86.998924031853676 44.845909669995308 631.17503850162029 209.49294757843018 203.94822625815868 1009.5952974706888 865.39051525294781 55.780637145042419 755.73394794762135 108.54982458055019 381.43127478659153 137.07409544289112 279.37577258050442 446.56201264262199
leaf_count=270039 960 8497 535 26165 20023 1083 11367 435 53044 1576 4480 1535 773 2126 702 1866 549 283 3983 1322 1287 6371 5461 352 4769 685 2407 865 1763 2818
internal_value=-1.79176 -1.58694 -1.88043 -1.55937 -1.70455 -1.66764 -1.74553 -1.67725 -1.53813 -1.55387 -1.70339 -1.66801 -1.53736 -1.495 -1.5494 -1.55628 -1.55104 -1.49311 -1.54267 -1.55355 -1.41405 -1.74276 -1.5577 -1.88991 -1.83973 -1.50243 -1.51808 -1.75807 -1.8075 -1.50267
internal_weight=73020.2 22061.5 50958.7 17871 4190.49 2930.69 3346.03 1544.74 14940.3 10347.4 2299.68 1589.75 631.016 508.522 10097.7 8997.92 8702.22 1099.76 676.021 8615.22 423.742 1094.38 1017.52 47612.7 1227.96 219.794 450.364 472.231 335.156 4592.87
internal_count=438121 139218 298903 112774 26444 18494 21115 9748 94280 65297 14512 10032 3982 3209 63721 56781 54915 6940 4266 54366 2674 6906 6421 277788 7749 1387 2842 2980 2115 28983
is_linear=0
shrinkage=1


Tree=3
num_leaves=31
num_cat=0
split_feature=4 8 9 7 6 2 30 49 7 6 4 20 19 2 18 28 15 37 36 4 22 2 21 6 24 1 5 21 30 44
split_gain=252916 22085.1 6305.79 10818.1 5835.9 1439.63 11740 1417.35 15643.9 1379.52 871.82 712.665 1396.79 1380.17 641.07 2472.93 344.703 284.333 264.095 11702.9 258.08 230.8 229.535 157.81 118.063 114.082 100.757 84.091 294.219 78.6418
threshold=0.019971590909090852 0.13681099151989562 0.026859705019696051 0.039356435643564357 0.12342392827122441 1.0000000180025095e-35 0.99999926646465676 0.0062656641604010013 0.21410891089108908 0.1231437377416643 0.018372159090909054 0.00021186139467125473 1.0000000180025095e-35 0.0014903354007345501 0.043443689553555702 0.011485969793754562 0.099704968893322823 0.070377072217188363 0.10939867390255907 0.004994318181818151 5.9707742520818266e-06 8.5305393308042816e-05 2.7433631812818532e-06 0.13295040627626789 0.084277622676768693 0.060291319438848183 0.00022696672785555002 0.0018604271189367565 0.9999992683348583 0.10984347946738572
decision_type=2 2 2 2 2 2 2 2 2 2 2 2 2 2 2 2 2 2 2 2 2 2 2 2 2 2 2 2 2 2
left_child=2 -2 5 14 9 6 -1 18 10 -3 -9 -11 20 -14 15 16 21 26 19 24 22 -4 -13 -10 -7 -20 -17 -18 -29 -22
right_child=1 4 3 -5 -6 7 -8 8 23 11 -12 12 13 -15 -16 17 27 -19 25 -21 29 -23 -24 -25 -26 -27 -28 28 -30 -31
leaf_value=-1.891759447639447 -1.8916254237107997 -1.891759447639447 -1.3420662078570096 -1.2942247508386684 -1.891759447639447 -1.8857111632966987 -1.3364701789244586 -1.8914833268757831 -1.2927200999862216 -1.2942621135453871 -1.3353354259116499 -1.7163748432495549 -1.3029482957403673 -1.8898113958135168 -1.8903486442460822 -1.891759447639447 -1.8857051792046367 -1.891759447639447 -1.891759447639447 -1.3047324574126815 -1.3665151808923308 -1.891759447639447 -1.3561272973097602 -1.891759447639447 -1.3397594822438919 -1.2917594852529739 -1.3381927978644965 -1.8582564784837678 -1.2917594852529739 -1.2922918720873895
leaf_weight=2549.4845870435238 709.42244336009026 39.933945536613464 21.275118291378021 501.38639214634895 172.46699419617653 24523.342648074031 447.58298742771149 4476.427493840456 494.88926017284393 9194.0377796888351 28.365437418222427 30.900866389274597 67.981906056404114 97.615044593811035 808.72714123129845 3.3726315200328818 486.84116050601006 10.526924610137938 27009.837494581938 351.79447889328003 194.59622526168823 11.91663137078285 41.359621167182922 4.4371030032634726 3.9616495370864859 3.1693196296691886 131.05146743357182 56.758899480104446 10.934152722358702 535.77348339557648
leaf_count=11339 3580 252 133 3164 863 141042 2814 27805 3123 58019 179 195 429 616 3601 15 2175 48 170356 2220 1228 53 261 28 25 20 827 261 69 3381
internal_value=-1.79176 -1.35182 -1.87049 -1.69772 -1.31491 -1.87638 -1.80883 -1.87994 -1.82912 -1.30516 -1.88798 -1.30286 -1.38446 -1.64889 -1.82897 -1.76121 -1.85245 -1.39128 -1.88484 -1.87741 -1.3299 -1.53942 -1.51018 -1.29804 -1.88562 -1.89169 -1.35208 -1.87118 -1.76675 -1.31207
internal_weight=73020.2 11084.1 61936.1 2042.79 10374.7 59893.3 2997.07 56896.2 5004.12 10202.2 4504.79 10162.3 968.227 165.597 1541.4 732.677 587.726 144.951 51892.1 24879.1 802.63 33.1917 72.2605 499.326 24527.3 27013 134.424 554.534 67.6931 730.37
internal_count=438121 68824 369297 10346 65244 358951 14153 344798 31135 64381 27984 64129 6110 1045 7182 3581 2691 890 313663 143287 5065 186 456 3151 141067 170376 842 2505 330 4609
is_linear=0
shrinkage=1


Tree=4
num_leaves=31
num_cat=0
split_feature=34 35 4 6 19 24 19 14 4 7 4 6 6 19 24 1 34 44 1 4 6 4 4 8 30 30 6 8 4 30
split_gain=43618.4 192396 19632 9985.92 8478.41 3761 4868.21 2563.25 2478.64 1543.6 1529.27 2986.97 1290.9 710.838 675.629 669.413 584.224 3605.74 337.291 316.582 430.759 397.507 332.94 299.07 274.705 664.242 255.721 248.458 219.123 217.774
threshold=0.20482336956521738 0.011209167544783903 0.016005681818181804 0.12650602409638559 2.2888132953252538e-08 2.975457283915715e-07 3.8146888255416381e-08 0.95998957527822182 0.0041874999999999508 0.59034653465346543 0.013687499999999951 0.14499859904735216 0.34729616138974512 8.3923154161914682e-08 5.4168581322579318e-07 1.2500426478656569e-08 0.15285326086956516 0.082007206792644158 0.76112556290045441 0.015551136363636302 0.39436817035584198 0.015539772727272702 0.015426136363636302 0.15775247583466759 0.99999927039560854 0.99999926710217202 0.14499859904735216 0.15631523157208088 0.016460227272727203 0.9999992663211571
decision_type=2 2 2 2 2 2 2 2 2 2 2 2 2 2 2 2 2 2 2 2 2 2 2 2 2 2 2 2 2 2
left_child=16 8 3 -3 23 6 24 10 -2 26 11 -5 -11 28 -12 19 -1 18 -18 21 -21 22 -14 -4 25 29 -9 -10 -8 -6
right_child=1 2 4 7 5 -7 13 9 27 12 14 -13 15 -15 -16 -17 17 -19 -20 20 -22 -23 -24 -25 -26 -27 -28 -29 -30 -31
leaf_value=-1.8910955172272945 -1.690784038453867 -1.889762129333098 -1.2917594639338748 -1.3774728003008325 -1.8168430981523607 -1.8859090469723818 -1.7126543886481969 -1.4071428753920332 -1.2962292492800174 -1.3285350081560492 -1.3017200857129667 -1.8223239311157895 -1.7076152668625917 -1.7557948145065556 -1.666758174476773 -1.4890578420236951 -1.2917594639338748 -1.8885879506421197 -1.8917594921436569 -1.5086047196281349 -1.8795145332928715 -1.8715503122596393 -1.3708496393339071 -1.8885971220693654 -1.838387533642716 -1.4017261493025561 -1.8745426750089533 -1.8456050909682236 -1.5036765116594746 -1.7613449843471598
leaf_weight=27494.287286192179 162.74525506794453 952.06356835365295 8.3988052159547788 429.28907833993435 849.06739380955696 2275.2652427852154 53.086604669690132 12.360474944114683 8402.2907001972198 188.73532278835773 725.46653500199318 232.78762151300907 185.88198740780354 140.56036315858364 54.512683212757111 269.87069760262966 126.61595033109188 869.40174911916256 10.117893889546393 161.79543603956699 38.82447437942028 136.44015960395336 34.862915694713593 23181.129702627659 603.92007876932621 49.283437922596931 220.90219694375992 8.2402384877204877 914.83469553291798 4227.1262104660273
leaf_count=150872 1027 6008 53 2709 5358 14358 335 78 53022 1191 4578 1469 1173 887 344 1703 799 5465 45 1021 245 861 220 146284 3811 311 1394 52 5773 26675
internal_value=-1.79176 -1.72992 -1.83144 -1.61141 -1.85626 -1.77454 -1.73748 -1.51295 -1.30425 -1.61778 -1.42211 -1.53388 -1.56454 -1.54565 -1.32723 -1.61835 -1.88836 -1.81351 -1.33616 -1.68091 -1.58038 -1.73737 -1.65443 -1.88838 -1.7746 -1.76708 -1.84978 -1.29677 -1.51514 -1.77063
internal_weight=73020.2 44519.7 35946.5 3643.79 32302.7 9113.14 6837.88 2691.73 8573.28 1249.67 1442.06 662.077 1016.41 1108.48 779.979 827.676 28500.4 1006.14 136.734 557.805 200.62 357.185 220.745 23189.5 5729.4 5125.48 233.263 8410.53 967.921 5076.19
internal_count=438121 280940 226839 22994 203845 57508 43150 16986 54101 7886 9100 4178 6414 6995 4922 5223 157181 6309 844 3520 1266 2254 1393 146337 36155 32344 1472 53074 6108 32033
is_linear=0
shrinkage=1


Tree=5
num_leaves=31
num_cat=0
split_feature=42 31 29 31 4 19 17 26 1 2 24 30 33 9 30 40 1 17 25 33 31 3 2 1 20 15 15 1 20 30
split_gain=288311 61988.6 4512.97 4551.67 831.61 565.266 597.325 531.565 477.642 215.644 54.6435 1718.75 18.8978 35.5725 14.595 5.4761 25.7569 3.53652 4.66745 2.22648 1.91608 187.342 1.14067 1.11361 39.3588 0.828198 9.22106 0.477655 0.21907 0.12764
threshold=1.0000000180025095e-35 0.99998252626059558 0.0058139534883720912 0.99998249709064824 0.0035852272727272005 2.2888132953252538e-08 7.2072013057762629e-07 0.12761566905726676 0.66276875729410323 8.5305393308042816e-05 2.2888132953398228e-08 0.99999926689986107 0.0087468341487840131 0.055625349298250061 0.99999926661756633 1.0000000180025095e-35 1.2500426478656569e-08 1.0246625741236819e-06 2.0860969249768272e-08 0.73247099483693967 0.99998249709064824 0.0018796992481202503 0.0029154372654101005 0.2523420632367242 4.1251407360137776e-07 0.7117913264889949 0.71518912238865318 0.81082423762024025 2.0834044121842424e-08 0.99999926669754979
decision_type=2 2 2 2 2 2 2 2 2 2 2 2 2 2 2 2 2 2 2 2 2 2 2 2 2 2 2 2 2 2
left_child=15 2 4 5 10 23 -7 12 -5 -9 20 14 13 -3 19 22 -17 18 -8 -12 29 -22 -1 24 25 -4 -27 -11 -19 -2
right_child=1 7 3 8 -6 6 17 9 -10 27 11 -13 -14 -15 -16 16 -18 28 -20 -21 21 -23 -24 -25 -26 26 -28 -29 -30 -31
leaf_value=-1.8917545674444196 -1.2917722773712439 -1.5089975516557614 -1.2917594755667137 -1.8917594661632091 -1.8917594661632091 -1.2917594755667137 -1.7281246494276215 -1.8917594661632089 -1.2917594755667137 -1.3334527933593388 -1.2917594755667137 -1.8917594661632091 -1.8916717612482901 -1.8917594661632091 -1.4995836231757984 -1.6728935866289212 -1.8890957809344082 -1.865672878008348 -1.8917594661632089 -1.3700212270156209 -1.8917594661632091 -1.2917594755667137 -1.8317603624918977 -1.2917594755667137 -1.6517614942939884 -1.471762742882933 -1.2917594755667137 -1.2917594755667137 -1.8917594661632091 -1.2926026927276373
leaf_weight=58226.455974414945 7427.045010253787 3.7260111719369871 117.10482965409756 273.29144090414047 23.383576989173889 32.643565505743027 3.4862389266490927 8.5571621954441088 13.944824099540709 3.235656380653384 1387.1930700838566 49.557348862290382 2168.1417679041624 6.9701046794652939 3.3941326290369025 6.516206055879592 35.694286853075027 3.6447213441133526 3.4862553775310516 3.6446761041879645 5.2634578347206107 460.17919528484344 3.1693255007266989 205.05229982733727 3.1693049371242514 3.1693028807640102 27.889648199081421 18.223349675536156 27.573127537965775 2465.3600324094296
leaf_count=349159 46869 21 739 1276 104 206 22 54 88 20 8754 221 9973 31 21 34 162 23 22 23 24 2904 20 1294 20 20 176 115 174 15552
internal_value=-1.79176 -1.39679 -1.31074 -1.55481 -1.296 -1.34784 -1.60586 -1.88526 -1.86263 -1.4673 -1.29481 -1.31304 -1.89102 -1.75842 -1.29247 -1.89173 -1.85572 -1.87433 -1.80994 -1.29196 -1.29227 -1.29854 -1.89175 -1.29656 -1.30307 -1.29561 -1.31013 -1.29805 -1.88871 -1.29198
internal_weight=73020.2 14748.3 12539.5 714.456 11825 427.219 70.8339 2208.85 287.236 30.0162 11801.6 1443.79 2178.84 10.6961 1394.23 58271.8 42.2105 38.1903 6.97249 1390.84 10357.8 465.443 58229.6 356.385 151.333 148.164 31.059 21.459 31.2178 9892.41
internal_count=438121 88746 78532 4060 74472 2696 447 10214 1364 189 74368 9019 10025 52 8798 349375 196 241 44 8777 65349 2928 349179 2249 955 935 196 135 197 62421
is_linear=0
shrinkage=1


Tree=6
num_leaves=31
num_cat=0
split_feature=33 41 32 0 42 6 42 14 14 30 2 15 31 2 23 14 22 31 33 4 0 9 21 4 18 9 21 3 33 19
split_gain=151752 24636.8 11115.7 3026.65 1458.6 1257.87 9533.11 4154.86 601.322 994.724 4999.1 752.255 895.081 512.955 379.878 303.472 228.193 195.722 160.453 252.214 154.354 144.444 153.161 117.41 116.906 93.8549 101.949 46.8348 363.646 41.0369
threshold=0.0050925875654626871 1.0000000180025095e-35 0.62323100100399575 1.0000000180025095e-35 1.0000000180025095e-35 0.084197254132810262 1.0000000180025095e-35 0.63111269202164888 0.34541928368705083 0.99999926646465676 1.0000000180025095e-35 0.079717410014283965 0.99998257989566008 1.505389293671344e-05 0.039601262610264538 1.0000000180025095e-35 0.00030929880553438703 0.99998249709064824 0.0087468341487840131 0.00094886363636360004 1.0000000180025095e-35 0.17188786770911876 0.0062477346152518863 0.0012244318181818001 1.8799810274508848e-06 0.016105240372156753 0.17488583941210964 0.0040279269602577512 0.012517469230455299 2.2888132953252538e-08
decision_type=2 2 2 2 2 2 2 2 2 2 2 2 2 2 2 2 2 2 2 2 2 2 2 2 2 2 2 2 2 2
left_child=1 3 8 -1 17 6 7 25 9 20 -11 18 15 -9 -14 16 24 -4 19 -12 -2 -17 -23 29 -13 26 -5 28 -20 -8
right_child=2 -3 4 5 -6 -7 23 13 -10 10 11 12 14 -15 -16 21 -18 -19 27 -21 -22 22 -24 -25 -26 -27 -28 -29 -30 -31
leaf_value=0.30939294531179329 -0.10751212479194461 0.3114150478887065 0.29490136221947116 0.30322029634333619 -0.097669864319613831 -0.097800717317257729 -0.097446780894553497 -0.096524536593567925 0.31319997849471143 -0.09257757021707004 -0.098942264076991179 -0.10603951531980332 -0.096834070667841554 0.29674998335328423 0.27394645387352473 0.30887120015457581 -0.091499196746229083 -0.034958467782342129 -0.087210123359290626 0.31247925215592326 0.31260661731215489 0.32159646832198829 -0.098411172055360902 0.31785896586420997 0.31118800882323727 0.0018302208252789617 -0.087192973691505457 0.31407959171296906 0.30594547689078966 -0.077683252318346233
leaf_weight=190.46701316535473 8.7680643647909147 1584.5896773785353 122.53859730064869 958.47473038733006 864.09705959260464 43077.488440722227 8955.9651647210121 428.62218368053436 8002.6411523371935 410.16568431258202 25.073542416095734 8.1989926099777204 129.85979874432087 35.947080492973328 35.100622206926346 355.21433946490288 40.235923781991005 21.082763269543648 25.792811751365662 36.724154710769653 3365.1220410466194 16.146399155259132 18.781546041369438 6.8885345458984366 37.121981099247932 10.637678056955336 6.7355618774890891 2069.696283236146 267.69801485538483 1190.2456493526697
leaf_count=606 45 5023 405 3105 6049 299515 62709 2817 25379 2668 166 45 867 119 131 1146 244 135 114 116 10632 52 127 22 129 65 36 6567 857 8230
internal_value=-0.000525395 -0.0773174 0.272778 -0.0885453 -0.0486212 -0.0899317 -0.0606931 0.180056 0.294584 0.272836 0.235291 0.279157 0.182783 -0.066094 -0.0179386 0.252388 0.0818279 0.24648 0.304619 0.145551 0.311515 0.289791 0.0957489 -0.0948481 0.235708 0.29724 0.300496 0.308778 0.271394 -0.0951283
internal_weight=72306.1 56446.1 15860.1 54861.5 1007.72 54671 11593.5 1440.42 14852.3 6849.7 3475.81 3065.64 640.66 464.569 164.96 475.699 85.5569 143.621 2424.98 61.7977 3373.89 390.142 34.9279 10153.1 45.321 975.848 965.21 2363.19 293.491 10146.2
internal_count=438121 382247 55874 377224 6589 376618 77103 6142 49285 23906 13229 10561 2741 2936 998 1743 418 540 7820 282 10677 1325 179 70961 174 3206 3141 7538 971 70939
is_linear=0
shrinkage=0.1


Tree=7
num_leaves=31
num_cat=0
split_feature=34 14 21 30 6 4 30 16 30 30 4 14 6 34 6 49 19 7 4 7 30 14 15 30 4 6 1 37 44 6
split_gain=78274.6 7984.53 8972.24 3212.23 2166.45 1562.39 1367.86 1181.93 1117.8 1018.18 763.453 709.624 5374.24 859.912 622.132 579.266 2338.75 428.423 420.489 490.46 415.904 414.287 446.359 378.689 359.55 589.009 352.418 352.313 288.275 440.127
threshold=0.33254076086956524 0.99797749373479383 6.4094038342834777e-07 0.9999992663211571 0.31325301204819284 0.016460227272727203 0.9999992663211571 7.32458593081728e-07 0.99999926630939495 0.98999927557279654 0.0059147727272727008 0.79658214715397158 0.10184925749509667 0.0067934782608695008 0.40557579153824602 0.37218045112781956 1.0000000180025095e-35 0.61262376237623772 0.00053977272727270007 0.040099009900990058 0.99999928019593454 0.76706456955748037 0.69385815969053444 0.99999928019593454 0.016460227272727203 0.40557579153824602 1.0000000180025095e-35 0.0024323712621589005 0.14957631126336698 0.1231437377416643
decision_type=2 2 2 2 2 2 2 2 2 2 2 2 2 2 2 2 2 2 2 2 2 2 2 2 2 2 2 2 2 2
left_child=11 2 4 9 10 14 8 -4 -6 -3 -2 15 13 -13 -5 -1 27 -8 -15 -20 26 -9 -23 24 25 -19 -7 -17 -14 -30
right_child=1 3 7 5 6 20 17 21 -10 -11 -12 12 28 18 -16 16 -18 23 19 -21 -22 22 -24 -25 -26 -27 -28 -29 29 -31
leaf_value=-0.096355986143216055 0.029306359280742052 0.13420329657486738 0.2776869345322544 0.12919379373314954 -0.028924776914345193 0.20944471450803726 -0.088110369072015138 0.24759443522163035 0.16152566812586655 0.26568530026774823 0.27690514299130004 -0.098276900290618849 -0.092895726261682632 0.41390388989261029 0.27043469004562753 -0.081311721912212198 0.31780922591832828 0.0054236770500812265 -0.051087972601191384 0.24289493231637038 0.24008739450706451 -0.015767534360301715 0.15154856850545317 0.19707265890885267 -0.019791044129684063 0.18256108786498396 0.12398221205339821 0.23487086165087356 0.22109140478107436 -0.050770454410384094
leaf_weight=32744.309433892369 179.39721907675266 709.974843069911 1591.5297074764967 418.06684218347073 473.39095933735371 503.95986872911453 708.32274389266968 276.07241442799568 883.02295824885368 3455.5430767685175 407.20606458187103 82.90677310526371 6198.4296684414148 118.67067974805832 1227.6122003346682 1621.3673279285431 167.35462133586407 919.45936942100525 65.270341724157333 434.68558086454868 338.19520758092403 219.97768022119999 579.41914387047291 90.286035031080246 5486.9674092978239 235.87113431096077 11336.776560291648 36.024375408887863 67.444244533777237 508.76167359948158
leaf_count=206477 1165 3967 7706 2318 3016 2556 4901 1381 4326 16782 1947 409 43007 664 5815 11218 761 5773 329 2155 1663 1372 3128 575 35470 1228 63948 190 447 3427
internal_value=0.000822657 0.1241 0.0611101 0.166295 0.0151099 0.1431 0.00270257 0.222963 0.0950581 0.243275 0.201184 -0.0872586 -0.0593228 0.204151 0.234554 -0.0933002 -0.0384647 -0.0141331 0.244682 0.204515 0.130743 0.14198 0.105507 -0.00635004 -0.00911508 0.0415879 0.12762 -0.0744393 -0.0866063 -0.0189493
internal_weight=72086.3 30041.1 12050.9 17990.1 9383.92 13824.6 8797.32 2667 1356.41 4165.52 586.603 42045.2 7476.17 701.533 1645.68 34569.1 1824.75 7440.91 618.627 499.956 12178.9 1075.47 799.397 6732.58 6642.3 1155.33 11840.7 1657.39 6774.64 576.206
internal_count=438121 169037 71988 97049 58401 76300 55289 13587 7342 20749 3112 269084 50438 3557 8133 218646 12169 47947 3148 2484 68167 5881 4500 43046 42471 7001 66504 11408 46881 3874
is_linear=0
shrinkage=0.1


Tree=8
num_leaves=31
num_cat=0
split_feature=34 30 6 32 30 4 18 34 6 30 14 15 6 4 14 14 4 32 14 1 30 30 14 30 30 30 30 30 30 30
split_gain=99379 4314.17 2708.64 1975.99 1973.67 971.27 737.733 689.012 656.301 426.545 416.617 1171.46 370.665 328.361 289.817 275.245 253.499 237.349 591.482 210.045 167.469 398.605 164.249 161.875 381.701 320.433 453.142 200.203 286.255 415.194
threshold=0.92900815217391319 0.9999992663211571 0.40781731577472691 0.89071584299131079 0.99999926630939495 0.016278409090909055 4.0434181743792546e-07 0.34816576086956524 0.39885121882880364 0.99999928019593454 0.82648061087156133 0.79535499709075486 0.40781731577472691 0.015551136363636302 0.99970301170734688 0.77149182400989458 0.0059147727272727008 0.70751179371395756 0.99970301170734688 4.208476912584414e-07 0.99999927894442875 0.99999926652346816 0.95998957527822182 0.99999927631438434 0.99999927079552575 0.99999927077670614 0.99999926710217202 0.9999992668198775 0.99999926646465676 0.99999926633997671
decision_type=2 2 2 2 2 2 2 2 2 2 2 2 2 2 2 2 2 2 2 2 2 2 2 2 2 2 2 2 2 2
left_child=7 4 5 6 -2 8 10 -1 13 14 -4 -12 -6 -3 20 -8 -9 -14 -19 -17 21 -5 -18 24 25 26 27 28 29 -16
right_child=1 2 3 9 12 -7 15 16 -10 -11 11 -13 17 -15 23 19 22 18 -20 -21 -22 -23 -24 -25 -26 -27 -28 -29 -30 -31
leaf_value=-0.097099865608210656 0.16538683433586199 0.17066553097650244 0.010157320797449555 0.21118386649257062 -0.053722878252927965 0.0039633715997660825 0.060750803246883936 0.1628060336651321 0.22014452657338246 0.077508179927308754 0.27204977790738993 0.061443149836162926 -0.02596164482933417 0.015793206976007116 0.16771244956897804 0.15740811713181119 -0.070396340622368367 0.1432881232983117 0.025813290821616076 0.27209201030698654 0.26413207619519652 0.10714169151074762 -0.0035525378362843878 0.21327751831215591 0.045146565382603476 0.4668538487743728 -0.10144042748560241 0.30736841755582894 0.1479962684462626 0.21406769691452179
leaf_weight=41832.611572295427 1351.9508671611547 200.12227679789066 704.61294777691364 4702.7054573744535 521.90880915522575 1298.8182318806648 141.988679215312 65.998880639672279 475.70799723267555 346.16541212797165 326.12298183143139 1388.8971318006516 503.77889747917652 433.34301815927029 4507.2482143640518 319.80056498944759 747.55475941300392 532.57095031440258 2195.4198601543903 319.00321540236473 491.92227083444595 399.5170646160841 723.26489740610123 1366.9777850359678 215.9940043836832 38.648406788706779 57.553617879748344 121.8302545696497 2376.7820551842451 3382.0484129339457
leaf_count=270039 7275 1213 4479 24105 3371 8351 853 352 2407 2004 1553 8350 3116 2684 23822 1706 5091 3331 13576 1552 2390 2055 4547 6940 1291 231 344 549 12669 17875
internal_value=0.000863292 0.14514 0.16316 0.174572 0.0617866 0.0626539 0.102168 -0.094684 0.131379 0.187441 0.0748944 0.101491 0.0244733 0.06472 0.189595 0.186686 -0.0289231 0.0371014 0.0487473 0.214678 0.208409 0.203037 -0.0375264 0.180873 0.176733 0.179444 0.178381 0.179931 0.178419 0.187584
internal_weight=72090.9 28721.4 23615.8 21207.8 5105.63 2407.99 3200.43 43369.4 1109.17 18007.4 2419.63 1715.02 3753.68 633.465 17661.2 780.792 1536.82 3231.77 2727.99 638.804 5594.14 5102.22 1470.82 12067.1 10700.1 10484.1 10445.5 10387.9 10266.1 7889.3
internal_count=438121 158092 127423 112768 30669 14655 18493 280029 6304 94275 14382 9903 23394 3897 92271 4111 9990 20023 16907 3258 28550 26160 9638 63721 56781 55490 55259 54915 54366 41697
is_linear=0
shrinkage=0.1


Tree=9
num_leaves=31
num_cat=0
split_feature=4 8 9 7 6 2 30 49 7 6 33 28 9 10 36 4 1 19 2 1 18 44 2 19 30 1 14 6 4 4
split_gain=155453 11088.2 4836.68 5029.05 2558.35 1367.61 7438.49 1209.11 9845.7 608.007 545.401 1317.49 376.531 318.368 282.198 7605.81 226.531 726.295 991.507 198.342 163.641 100.845 186.137 85.1573 154.966 81.7572 68.5613 180.76 108.126 307.459
threshold=0.016761363636363602 0.13681099151989562 0.026859705019696051 0.039356435643564357 0.12342392827122441 1.0000000180025095e-35 0.99999926646465676 0.0062656641604010013 0.21410891089108908 0.1231437377416643 0.051966514159999484 0.011485969793754562 0.17319553989620304 0.075026343519494165 0.10939867390255907 0.004994318181818151 0.00014635499314452283 1.0000000180025095e-35 0.0014702635434856502 0.0082424020366161557 4.189314706403228e-06 0.10931901024567627 0.0014903354007345501 0.0067862169799581592 0.99999926661756633 0.060291319438848183 0.99976571191616526 0.0028019052956010002 0.0041874999999999508 0.00088068181818175002
decision_type=2 2 2 2 2 2 2 2 2 2 2 2 2 2 2 2 2 2 2 2 2 2 2 2 2 2 2 2 2 2
left_child=2 -2 5 10 9 6 -1 14 -9 -3 -4 12 -12 -13 15 23 -11 20 -19 -14 -18 22 -22 26 -25 -16 -7 -28 29 -29
right_child=1 4 3 -5 -6 7 -8 8 -10 16 11 13 19 -15 25 -17 17 18 -20 -21 21 -23 -24 24 -26 -27 27 28 -30 -31
leaf_value=-0.097652302527704613 -0.096759022633720881 -0.097657197081755645 -0.094674672948649397 0.3110288220603506 -0.098046253489634638 -0.091854004925342847 0.29492068399074323 -0.097417089232932907 0.30929048384868607 0.31284103999170154 -0.085300163709106841 0.29550828314337857 -0.092479156193221029 -0.097685699073445958 -0.097923100646978678 0.30647229567885304 -0.066077803945953029 0.30695392763375273 -0.097956817366989801 0.31000743901313066 0.32521908602959926 0.3043983548980258 -0.062343036797062094 -0.097742293339492678 0.36605011557515799 0.34384588771783675 0.50121439485743435 -0.097689512984434401 -0.09774029064914963 0.30368901990399277
leaf_weight=2296.9165843427181 732.14791421592236 37.129385337233543 676.03822180628777 626.77121806144714 158.0542216449976 21928.055438220501 611.07047653198242 4036.1487696617842 698.1909637004137 12167.114592447877 449.76619279384613 175.30100537836552 17.67110800743103 23.333891078829765 24652.475431248546 492.06597018241882 12.247763648629187 127.34889876842499 115.16410213708878 39.864071324467659 29.352809876203537 1865.7733188420534 21.44663368165493 19.329464346170425 11.484669908881189 4.1899538040161124 6.0100279450416556 55.855775564908981 177.91559980809689 28.989251688122749
leaf_count=11339 4034 260 3331 2812 863 139167 2814 27795 3138 54594 2214 810 87 115 170356 2220 56 573 747 184 135 8445 112 95 63 20 38 278 1241 185
internal_value=-0.000465417 0.282957 -0.0763352 0.0760786 0.302085 -0.0818999 -0.0151589 -0.0856243 -0.0374384 0.306485 -0.0304791 0.0309976 -0.0544867 0.249319 -0.0904395 -0.0823994 0.307531 0.277777 0.114671 0.186389 0.298285 0.300613 0.161597 -0.0910081 0.0751168 -0.097848 -0.0912387 -0.0410388 -0.0534415 0.0394507
internal_weight=72293.2 15265.8 57027.4 2008.75 14533.6 55018.7 2907.99 52110.7 4734.34 14375.6 1381.97 705.936 507.301 198.635 47376.4 22719.7 14338.4 2171.33 242.513 57.5352 1928.82 1916.57 50.7994 22227.6 30.8141 24656.7 22196.8 268.771 262.761 84.845
internal_count=438121 69819 368302 9553 65785 358749 14153 344596 30933 64922 6741 3410 2485 925 313663 143287 64662 10068 1320 271 8748 8692 247 141067 158 170376 140909 1742 1704 463
is_linear=0
shrinkage=0.1


Tree=10
num_leaves=31
num_cat=0
split_feature=34 4 6 19 44 6 24 14 6 1 8 7 8 4 4 1 4 6 4 4 4 19 30 30 6 35 4 4 6 30
split_gain=35400.4 106796 8523.91 7087.06 6257.87 6076.32 3186.61 3116.03 2301.33 994.033 677.995 966.237 722.268 557.29 493.928 414.026 375.13 374.297 346.005 271.652 256.645 256.332 225.104 497.836 209.167 165.755 162.771 214.167 156.99 145.049
threshold=0.15285326086956516 0.015914772727272705 0.11445783132530117 2.2888132953252538e-08 0.10836275143828826 0.12650602409638559 3.4332199429815111e-07 0.96618617757206549 0.088960493135331956 1.2500426478656569e-08 0.18885355512067839 0.59034653465346543 0.47447814742335298 0.0096903409090909019 0.0059147727272727008 4.5834897075686116e-08 0.0041874999999999508 0.11683945082656201 0.015551136363636302 0.015539772727272702 0.015096590909090853 2.5176946248530021e-07 0.99999927039560854 0.99999926655640259 0.097086018492574963 0.032468387776606912 0.016414772727272705 0.016278409090909055 0.14499859904735216 0.9999992663211571
decision_type=2 2 2 2 2 2 2 2 2 2 2 2 2 2 2 2 2 2 2 2 2 2 2 2 2 2 2 2 2 2
left_child=-1 2 8 4 -3 17 7 15 -2 10 -7 28 -13 14 -11 -5 24 -4 19 20 -14 25 23 29 -10 -15 27 -6 -12 -9
right_child=1 3 5 6 26 9 -8 22 16 13 11 12 18 21 -16 -17 -18 -19 -20 -21 -22 -23 -24 -25 -26 -27 -28 -29 -30 -31
leaf_value=-0.096945585317866179 -0.089343581524873636 0.31321675030219875 0.20581563492558017 0.20307214747402691 -0.054611172411748815 0.27566711818142942 -0.091731271927195712 -0.022233708072325737 0.29460890542824858 0.20505072927531157 0.17170899355615588 0.29293872497412549 0.0080520183941581586 0.30595107584914294 -0.092938993122188188 0.037262498218259998 0.3108017183613449 -0.095324322922661187 0.20404152598997483 -0.078232009221122473 0.22205151998891848 0.096785448093026805 -0.043066948404231364 0.16654803571700871 0.037037094599926719 0.22785049730865281 -0.095542778738048173 0.2021170559626235 -0.079057610302165529 0.023740250638052636
leaf_weight=24800.455976694822 146.93041935563087 383.42858605086803 43.20253299176693 1224.882027938962 398.6849822551012 293.81102760136127 2087.8363262414932 823.16328942775726 52.760413601994514 203.12449105083942 27.669725269079208 271.97715671360493 127.30799432098866 1083.9117020219564 76.600028678774834 171.70449113845825 11569.015549868345 924.7379292100668 186.24464717507362 131.67473039031029 100.10976392030716 75.01528100669384 577.01650215685368 230.15469616651535 78.343851163983345 362.66415873169899 21364.899952501059 35.37748546898365 255.4087790697813 4126.4362382143736
leaf_count=150872 926 1721 195 6334 2726 1375 14385 5354 311 1026 132 1272 754 4982 501 1044 51972 6438 963 861 537 443 3809 1354 452 1821 148021 234 1727 25579
internal_value=-0.00012962 0.0504897 0.260701 -0.0566144 -0.0872669 0.137619 0.0169632 0.0486876 0.303957 0.204108 0.140712 0.104678 0.159826 0.253176 0.123449 0.182687 0.308896 -0.0818834 0.0934377 0.0360727 0.102255 0.277024 0.0161796 0.0227796 0.140692 0.286371 -0.0943111 -0.033687 -0.0545462 0.0160944
internal_weight=72234.6 47434.1 16010.5 31423.6 22182.4 4163.46 9241.19 7153.36 11847.1 3195.52 1394.2 1100.39 817.314 1801.32 279.725 1396.59 11700.1 967.94 545.337 359.092 227.418 1521.59 5756.77 5179.75 131.104 1446.58 21799 434.062 283.079 4949.6
internal_count=438121 287249 76688 210561 152702 23027 57859 43474 53661 16394 7621 6246 4387 8773 1527 7378 52735 6633 3115 2152 1291 7246 36096 32287 763 6803 150981 2960 1859 30933
is_linear=0
shrinkage=0.1


Tree=11
num_leaves=31
num_cat=0
split_feature=42 31 4 29 31 26 1 19 17 2 24 30 33 2 40 1 1 17 25 2 33 24 31 3 1 15 28 15 15 20
split_gain=185399 28039.8 1669.44 858.464 1617.72 378.744 295.61 227.444 326.544 111.765 17.8369 802.535 17.5144 31.1807 5.66609 22.5453 3.16838 3.15357 3.82689 1.14585 0.753705 0.535933 0.516444 79.2572 0.462098 21.4745 0.292153 0.272683 3.31159 0.218482
threshold=1.0000000180025095e-35 0.99998252626059558 0.0035852272727272005 0.0058139534883720912 0.99998249709064824 0.12761566905726676 0.66276875729410323 2.2888132953252538e-08 7.2072013057762629e-07 8.5305393308042816e-05 2.2888132953398228e-08 0.99999926689986107 0.0087468341487840131 0.00011541317918145002 1.0000000180025095e-35 1.2500426478656569e-08 0.0011095586877772278 1.0246625741236819e-06 2.0860969249768272e-08 0.0029154372654101005 0.73247099483693967 6.7901461094488149e-07 0.99998249709064824 0.0018796992481202503 0.2523420632367242 0.667842023081891 0.58894716859593121 0.7117913264889949 0.71518912238865318 2.0834044121842424e-08
decision_type=2 2 2 2 2 2 2 2 2 2 2 2 2 2 2 2 2 2 2 2 2 2 2 2 2 2 2 2 2 2
left_child=14 2 3 10 7 12 -6 21 -9 -7 22 16 13 -3 19 -16 20 18 -10 -1 -12 24 -2 -24 25 -5 -11 -27 -29 -19
right_child=1 5 -4 4 6 9 -8 8 17 26 11 -13 -14 -15 15 -17 -18 29 -20 -21 -22 -23 23 -25 -26 27 -28 28 -30 -31
leaf_value=-0.097784558600557778 0.31243631147356421 -0.098638827784200897 -0.097656182298601346 0.059018212933666506 -0.097837571927170297 -0.099964711493220546 0.31254055596402441 0.31245096863453786 0.044542375244768687 0.31408380869541519 0.31247448890064566 -0.099534870121070429 -0.097595005474752361 0.25310758690791907 0.10376592994426739 -0.094861895067233831 0.22346741936093753 -0.073701625814097171 -0.099968656850121185 -0.036349085710650125 0.27337455640881336 0.34425425875271781 -0.097663465285009479 0.31254033934907188 0.31254055596402441 0.31243617244687355 0.2870586860442978 0.21773568912811184 0.31243573665618263 -0.099827148723976841
leaf_weight=52799.767740428448 13925.879703983665 6.9096360802650434 102.9138331413269 3.4519357383251181 165.69917823374271 8.5450733304023725 19.6326904296875 45.966727882623672 3.8684509694576255 25.353082373738292 1953.3099118322134 48.511831656098366 1956.9437186568975 3.9670452177524567 6.9392532408237448 32.376759886741638 4.0164455175399771 3.6251485049724606 3.4818812012672424 3.036078914999961 4.9425028115510932 4.5975778102874747 4.7446945607662192 647.87906992435455 288.68978881835938 160.6652502566576 4.7495062947273246 4.0782743096351615 39.050616323947906 27.358390331268311
leaf_count=349159 62421 33 508 18 872 54 88 206 22 114 8755 221 9973 19 34 162 20 23 22 20 23 22 24 2904 1294 720 21 20 175 174
internal_value=-0.000560622 0.263237 0.303917 0.306298 0.20309 -0.090803 -0.0543651 0.284676 0.132719 0.219216 0.31109 0.302261 -0.0968917 0.0296534 -0.0977528 -0.0598042 0.312194 -0.0828004 -0.0239131 -0.097781 0.312376 0.310269 0.312307 0.309558 0.309954 0.306352 0.30982 0.310541 0.303481 -0.0967704
internal_weight=72311 19468.8 17462.4 17359.5 770.166 2006.47 185.332 584.834 84.3006 38.6477 16589.3 2010.78 1967.82 10.8767 52842.1 39.316 1962.27 38.3339 7.35033 52802.8 1958.25 500.533 14578.5 652.624 495.936 207.246 30.1026 203.794 43.1289 30.9835
internal_count=438121 88746 78532 78024 3656 10214 960 2696 447 189 74368 9019 10025 52 349375 196 8798 241 44 349179 8778 2249 65349 2928 2227 933 135 915 195 197
is_linear=0
shrinkage=0.1


Tree=12
num_leaves=31
num_cat=0
split_feature=33 41 32 0 6 42 14 42 2 14 30 2 17 31 14 22 9 31 0 4 25 33 4 18 14 30 30 0 19 30
split_gain=109007 18423.1 6496.97 2283.21 1223.09 7502.84 2685.34 1109.65 393.838 296.912 504.808 3109.73 399.6 689.574 171.071 173.586 128.648 113.69 101.984 89.3038 89.192 87.3619 171.018 69.7072 67.1121 61.2143 171.488 69.3241 43.3555 1192.62
threshold=0.0050925875654626871 1.0000000180025095e-35 0.62323100100399575 1.0000000180025095e-35 0.084197254132810262 1.0000000180025095e-35 0.63111269202164888 1.0000000180025095e-35 1.505389293671344e-05 0.34541928368705083 0.99999926646465676 1.0000000180025095e-35 0.020117057692623019 0.99998259306918447 1.0000000180025095e-35 0.00062355097602994757 0.17188786770911876 0.99998249709064824 1.0000000180025095e-35 0.0012244318181818001 0.034557872784602615 0.0087468341487840131 0.00094886363636360004 1.8799810274508848e-06 0.31851957968804412 0.99999926661756633 0.99999926669754979 0.67647058823529427 2.2888132953252538e-08 0.99999926691868068
decision_type=2 2 2 2 2 2 2 2 2 2 2 2 2 2 2 2 2 2 2 2 2 2 2 2 2 2 2 2 2 2
left_child=1 3 9 -1 5 6 25 17 -8 10 18 -12 13 14 15 23 20 -4 -2 28 -16 22 -14 -13 -18 27 -27 -5 -7 -30
right_child=2 -3 7 4 -6 19 8 -9 -10 -11 11 12 21 -15 16 -17 24 -19 -20 -21 -22 -23 -24 -25 -26 26 -28 -29 29 -31
leaf_value=0.23320262181637005 -0.10718798116225692 0.23491126222837866 0.22222127542846815 0.23684506018669196 -0.09595631293116072 -0.095452114989143633 -0.095152915437643065 -0.095743943372705809 0.22768394188978017 0.23589380475321256 -0.089886949736108349 -0.10387401218760084 -0.098116521854095154 -0.086063283197628973 0.23292270500216927 -0.10077606595268414 -0.090496269805701982 -0.03125368381355699 0.23552515152270648 0.23986800951248677 -0.096327799063809366 0.23204893802681098 0.23570843606913194 0.22151124319620732 0.24723936664346968 -0.1052131523624682 0.206399390296476 -0.049047548814203819 -0.095805022678666182 0.43239649771370037
leaf_weight=222.65772351622581 8.7022101432085019 1851.6613419055939 143.23584747314453 963.0695718228817 39028.671134732664 8045.122506827116 403.64472761750221 777.65848332643509 41.690700337290764 9365.2461314052343 374.6557102650404 7.6270401626825324 23.888622596859932 109.43490169942379 429.01889710128307 37.706834584474564 20.268082946538929 20.189107045531273 3935.1411938965321 8.0709782838821393 8.3884730935096723 2798.0902286916971 42.91598242521286 48.137728288769722 8.2902331352233869 20.105504289269447 145.22913789749146 8.5569684505462629 1044.8342296183109 44.570202276110649
leaf_count=606 45 5023 405 2619 299515 62709 2817 6049 119 25379 2668 45 166 793 1183 234 149 135 10632 22 63 7646 116 143 23 110 446 31 8026 204
internal_value=-0.000959112 -0.0748312 0.209885 -0.0863074 -0.0877372 -0.0578275 0.143224 -0.0459651 -0.0649301 0.223869 0.209528 0.184058 0.213102 0.143508 0.188415 0.0649486 0.213182 0.190908 0.234769 -0.0926232 0.226608 0.229351 0.116336 0.177008 0.00754548 0.224756 0.168506 0.234327 -0.0929169 -0.074195
internal_weight=69986.5 51827.9 18158.6 49976.2 49753.6 10724.9 1582.3 941.083 445.335 17217.5 7852.27 3908.42 3533.77 668.872 559.437 93.4716 465.966 163.425 3943.84 9142.6 437.407 2864.89 66.8046 55.7648 28.5583 1136.96 165.335 971.627 9134.53 1089.4
internal_count=438121 382247 55874 377224 376618 77103 6142 6589 2936 49285 23906 13229 10561 2633 1840 422 1418 540 10677 70961 1246 7928 282 188 172 3206 556 2650 70939 8230
is_linear=0
shrinkage=0.1


Tree=13
num_leaves=31
num_cat=0
split_feature=34 1 21 30 30 30 14 6 14 30 49 19 34 30 4 14 6 4 44 6 4 37 30 30 19 19 30 8 7 4
split_gain=61608.1 5024.46 6510 2007.42 933.6 729.731 699.838 4116.82 659.422 614.997 562.289 1666.25 529.556 351.468 282.686 1126.37 284.802 300.034 281.281 314.439 277.892 273.131 250.689 226.745 221.774 322.525 211.583 203.899 292.022 364.346
threshold=0.33254076086956524 1.2500426478656569e-08 6.4094038342834777e-07 0.9999992663211571 0.9999992663211571 0.99999926630939495 0.79658214715397158 0.10184925749509667 0.8215108348067458 0.98999927557279654 0.37218045112781956 1.0000000180025095e-35 0.0067934782608695008 0.99999928019593454 0.016460227272727203 0.99921433821388661 0.29910339030540772 0.014926136363636303 0.14957631126336698 0.1231437377416643 0.0059147727272727008 0.0024323712621589005 0.99999928019593454 0.99999926648112403 2.6168765343157253e-06 8.0108465336194826e-07 0.99999927141657385 0.36814253098499677 0.70024752475247531 0.016460227272727203
decision_type=2 2 2 2 2 2 2 2 2 2 2 2 2 2 2 2 2 2 2 2 2 2 2 2 2 2 2 2 2 2
left_child=6 3 4 9 5 -3 10 12 24 -2 -1 21 -8 14 15 16 20 -18 -9 -20 -5 -12 27 -14 25 -4 -25 -6 -29 -30
right_child=1 2 8 13 22 -7 7 18 -10 -11 11 -13 23 -15 -16 -17 17 -19 19 -21 -22 -23 -24 26 -26 -27 -28 28 29 -31
leaf_value=-0.094280128297519278 0.10753498648302569 -0.027886961301207644 0.12570260053477064 0.0046670450394633873 0.09900685574603045 0.13057283910863285 -0.096223413678107605 -0.090448194923380631 0.21278038179493697 0.20168564708036998 -0.077961685034013253 0.23842580985978207 0.22665777954668159 0.1987251287571061 0.10541550172038111 0.20250033613299323 -0.047885521512197847 0.079371141269945614 0.16838120069810605 -0.046557977805264411 0.21673202972063246 0.18172313012658547 0.1430033096501527 0.065374281499193804 0.19454008262394454 -0.013907692547159079 0.28268312673552071 -0.074860105826697151 0.077437131741967105 -0.017199834507574174
leaf_weight=29489.271636486053 829.24856720864773 430.90391485393047 761.01479114592075 85.211548402905464 152.97028529644012 892.67843656241894 74.601353079080582 5595.9142827838659 1777.2544035464525 4247.1301918178797 1478.776412114501 196.74288406968117 455.04700468480587 477.4127661138773 12899.640525832772 1424.3280620276928 243.34142771363258 776.38325646519661 79.353159114718437 478.3382416665554 224.83933806419373 41.642612189054489 101.7700524777174 213.40795382857323 293.39295496046543 211.45113827288151 56.71149043738842 788.84417189657688 440.27973245084286 5351.4728123396635
leaf_count=206477 4255 2822 3675 560 802 3987 409 43007 7309 17675 11218 761 1954 2036 66504 5823 1695 4387 447 3427 918 190 558 952 1259 1344 242 5633 2325 35470
internal_value=0.0014597 0.102846 0.0486698 0.131462 0.00211279 0.0789849 -0.0846485 -0.0559592 0.173494 0.186306 -0.091041 -0.0354142 0.157476 0.114203 0.111625 0.140708 0.0745219 0.0490033 -0.0836988 -0.0159746 0.15845 -0.0708492 -0.0127726 0.183575 0.118337 0.095346 0.110998 -0.0151269 -0.0177801 -0.0100057
internal_weight=70569.4 32409.6 11202 21207.5 8158.92 1323.58 38159.8 6953.37 3043.11 5076.38 31206.4 1717.16 799.768 16131.2 15653.7 2754.1 1329.78 1019.72 6153.61 557.691 310.051 1520.42 6835.34 725.166 1265.86 972.466 270.119 6733.57 6580.6 5791.75
internal_count=438121 169037 65184 103853 51597 6809 269084 50438 13587 21930 218646 12169 3557 81923 79887 13383 7560 6082 46881 3874 1478 11408 44788 3148 6278 5019 1194 44230 43428 37795
is_linear=0
shrinkage=0.1


Tree=14
num_leaves=31
num_cat=0
split_feature=34 30 6 30 32 4 6 19 34 6 4 6 19 19 30 8 4 32 14 30 30 30 30 30 30 1 30 30 30 30
split_gain=77664.3 2595.4 1867.23 1254.2 1079.09 531.6 550.161 454.014 338.819 422.961 323.077 320.764 281.442 631.646 234.953 214.001 203.393 194.725 408.86 174.493 454.095 324.283 317.919 409.823 172.861 152.985 152.71 225.914 254.997 210.365
threshold=0.85631793478260876 0.9999992663211571 0.40781731577472691 0.99999926630939495 0.89071584299131079 0.016278409090909055 0.39885121882880364 7.4004963215328612e-07 0.34816576086956524 0.34085177920986276 0.014460227272727203 0.40781731577472691 6.7901461094506445e-07 1.9073444127663805e-07 0.99999928019593454 0.36814253098499677 0.0059147727272727008 0.70751179371395756 0.99976571191616526 0.99999927894442875 0.99999927958429635 0.99999927996068905 0.99999926646465676 0.99999926633997671 0.99999927781525033 4.0418045595819191e-07 0.99999927762234908 0.99999927698718627 0.99999927695425195 0.99999927670018685
decision_type=2 2 2 2 2 2 2 2 2 2 2 2 2 2 2 2 2 2 2 2 2 2 2 2 2 2 2 2 2 2
left_child=8 3 5 -2 7 6 10 12 -1 15 -3 -5 13 -4 19 16 -10 25 -19 22 -21 -22 23 -6 26 -13 27 28 29 -24
right_child=1 2 4 11 14 -7 -8 -9 9 -11 -12 17 -14 -15 -16 -17 -18 18 -20 20 21 -23 24 -25 -26 -27 -28 -29 -30 -31
leaf_value=-0.095103881142279287 0.12999523470501936 0.2780535444047153 0.055126165948127061 -0.049207484952318192 0.13878815467626043 0.0053169620063951428 0.17354113983304587 0.15023414087487164 0.13444786410338855 -0.091100965537906226 0.032453970377060305 -0.058282189836900235 0.0099160408183667902 0.19591739005240688 0.06801273602602724 0.13186372353342896 -0.055621459965496903 0.1115032259962669 0.022845685018712529 0.26172523983314527 -0.069414603793198706 0.15985520074170909 0.12636406988617072 0.17447132163397472 -0.11133618807855993 0.065932423539997773 0.33568485804770981 -0.11044562363193718 0.32701794442393661 -0.11042429240649634
leaf_weight=37656.211755461991 1535.1731341779232 56.983028456568718 1472.3737681657076 530.45096237957478 7251.3542910963297 1285.0088638812304 541.27802103757858 849.60618038475513 72.570179402828217 665.2804556414485 891.97563460469246 353.51598308980465 665.38353370130062 406.6687388420105 362.04949295520782 148.85139562189579 251.12272049486637 691.70031698048115 2097.556209653616 484.68567804992199 64.841759592294693 1270.1422080695629 4908.6477594673634 5787.4828011840582 30.707810342311859 137.80309811234474 34.706200674176216 40.35824228823185 62.999400407075882 37.808146193623543
leaf_count=270039 7398 300 8498 3604 33699 8351 2407 3982 352 4942 5308 2258 4278 1736 2004 865 1763 3992 12915 2010 334 5599 23217 26439 143 858 163 191 297 179
internal_value=0.00152639 0.117241 0.130061 0.0536815 0.139138 0.052449 0.0930902 0.0869401 -0.0934794 -0.0397166 0.0472017 0.0229405 0.0658057 0.0855967 0.14785 0.0326259 -0.013009 0.0346064 0.0448316 0.149297 0.178819 0.148719 0.146338 0.154627 0.12521 -0.023443 0.126639 0.125202 0.1271 0.124554
internal_weight=70645.3 31851.3 26505.1 5346.2 23729.8 2775.25 1490.24 3394.03 38794 1137.82 948.959 3811.03 2544.43 1879.04 20335.8 472.544 323.693 3280.58 2789.26 19973.7 1819.67 1334.98 18154.1 13038.8 5115.23 491.319 5084.52 5049.81 5009.46 4946.46
internal_count=438121 160160 129135 31025 112769 16366 8015 18494 277961 7922 5608 23627 14512 10234 94275 2980 2115 20023 16907 92271 7943 5933 84328 60138 24190 3116 24047 23884 23693 23396
is_linear=0
shrinkage=0.1


Tree=15
num_leaves=31
num_cat=0
split_feature=4 8 9 7 6 2 30 49 7 33 28 6 9 36 4 37 1 1 17 44 19 18 22 19 30 2 1 14 35 4
split_gain=110962 6638.26 4153.21 3239.3 1538.01 1258.56 5340.83 1132.56 7195.45 470.516 908.104 358.483 295.927 293.23 5733.06 192.371 124.324 119.21 370.334 172.321 268.061 131.78 98.0362 76.4182 103.964 76.3011 70.0726 67.9801 1197.74 234.366
threshold=0.016761363636363602 0.13681099151989562 0.026859705019696051 0.039356435643564357 0.12342392827122441 1.0000000180025095e-35 0.99999926646465676 0.0062656641604010013 0.21410891089108908 0.051966514159999484 0.011485969793754562 0.1231437377416643 0.17319553989620304 0.10939867390255907 0.004994318181818151 0.070377072217188363 0.0082424020366161557 0.0001995734754484044 3.1762183296995057e-06 0.10984347946738572 1.0000000180025095e-35 0.0012039840357847035 6.6253255329978148e-06 0.0067862169799581592 0.99999926661756633 0.0014903354007345501 0.060291319438848183 0.57455868113337483 0.00026343519494200006 0.0041874999999999508
decision_type=2 2 2 2 2 2 2 2 2 2 2 2 2 2 2 2 2 2 2 2 2 2 2 2 2 2 2 2 2 2
left_child=2 -2 5 9 11 6 -1 13 -9 -4 12 -3 -11 14 23 -12 -14 -13 -19 20 21 22 -20 27 -25 -22 -15 -7 -29 -30
right_child=1 4 3 -5 -6 7 -8 8 -10 10 15 17 16 26 -16 -17 -18 18 19 -21 25 -23 -24 24 -26 -27 -28 28 29 -31
leaf_value=-0.09569442366199539 -0.09471096743869202 -0.095710756297976929 -0.092405055049411058 0.2344910415769694 -0.096376979636206533 -0.091869315579084385 0.22100485427177433 -0.095445747405691839 0.23319927517323991 -0.08223967226197948 0.22174599875980983 0.23500858522186216 -0.09001546047099826 -0.096155364745537694 0.2320009435349395 -0.096039623473552785 0.23306515081765611 -0.061909867466177076 0.079737496688460086 0.23514284649803241 0.23758699696775554 -0.056456507175382233 0.22758442327900888 -0.09579865303369664 0.27020060152019676 -0.095841500638606733 0.29187442410534337 0.446707940555779 -0.041895566156319591 -0.095578695690389182
leaf_weight=2064.7374371737242 659.03233184665442 33.397565215826035 609.11653485894203 732.58583691716194 144.22005619853735 15514.881959304214 717.5491316318512 3632.2024173885584 815.83492596447468 408.93331150710583 205.73367643356323 15107.771941080689 15.972787097096441 22460.119022533298 574.16471603512764 20.992728233337402 46.833522841334343 49.827482417225838 52.780140608549118 1148.4891859441996 8.0544996559619886 20.335819989442825 298.50294996798038 17.40742327272892 14.005417272448542 46.401811003684998 4.6548771858215323 43.094653755426407 1062.4253264516592 3467.3087137565017
leaf_count=11339 4034 260 3331 2812 863 107284 2814 27795 3138 2214 810 58008 87 170356 2220 115 184 327 231 4440 31 84 1181 95 63 360 20 255 6598 26772
internal_value=-0.000844041 0.216655 -0.0737281 0.0661469 0.22879 -0.0793915 -0.014018 -0.0832122 -0.0351675 -0.0281696 0.0278488 0.231588 -0.0512 -0.0881639 -0.0795755 0.192322 0.1509 0.232241 0.206499 0.214993 0.160679 0.191043 0.20537 -0.0884674 0.0673821 -0.0465249 -0.096075 -0.0887111 -0.0779957 -0.0829876
internal_weight=69997.4 17568.8 52428.6 2040.17 16909.8 50388.4 2782.29 47606.1 4448.04 1307.58 698.466 16765.6 471.74 43158.1 20693.3 226.726 62.8063 16732.2 1624.39 1574.56 426.075 371.619 351.283 20119.1 31.4128 54.4563 22464.8 20087.7 4572.83 4529.73
internal_count=438121 69819 368302 9553 65785 358749 14153 344596 30933 6741 3410 64922 2485 313663 143287 925 271 64662 6654 6327 1887 1496 1412 141067 158 391 170376 140909 33625 33370
is_linear=0
shrinkage=0.1


Tree=16
num_leaves=31
num_cat=0
split_feature=34 4 19 44 6 6 24 19 6 14 6 8 4 6 6 14 7 30 4 30 30 30 4 4 6 4 6 8 4 7
split_gain=29392.2 73320.9 6321.46 4731.96 4682.6 4037.87 2610.76 2016.48 1395.45 651.812 409.534 553.156 363.728 1228.57 306.326 276.741 203.361 203.207 199.841 195.364 182.899 337.456 155.609 208.316 200.597 172.959 136.19 130.457 127.74 264.531
threshold=0.15285326086956516 0.016005681818181804 2.2888132953252538e-08 0.10836275143828826 0.11445783132530117 0.12650602409638559 3.4332199429815111e-07 3.8146888255416381e-08 0.088960493135331956 0.96618617757206549 0.34085177920986276 0.47447814742335298 0.013386363636363601 0.14583917063603249 0.11683945082656201 0.93629239415290944 0.61262376237623772 0.99999926648112403 0.0041874999999999508 0.99999927235755559 0.99999927039560854 0.99999926655640259 0.015551136363636302 0.015539772727272702 0.39436817035584198 0.015096590909090853 0.097086018492574963 0.18885355512067839 0.016414772727272705 0.70024752475247531
decision_type=2 2 2 2 2 2 2 2 2 2 2 2 2 2 2 2 2 2 2 2 2 2 2 2 2 2 2 2 2 2
left_child=-1 4 3 -3 8 14 7 20 -2 12 -11 -12 13 27 -6 17 -14 -9 26 -19 21 -4 23 25 -24 -13 -10 -7 29 -5
right_child=1 2 6 28 5 9 -8 15 18 10 11 22 16 -15 -16 -17 -18 19 -20 -21 -22 -23 24 -25 -26 -27 -28 -29 -30 -31
leaf_value=-0.094935912693890012 -0.087192552983129848 0.23613497066287842 0.015313092257030123 0.56858998834046637 0.16716238869976555 0.21428679699706607 -0.089509414235306006 0.0064931009502847727 0.226753402914876 -0.036570956096017508 0.23537963709931012 0.0035767218968742543 0.23935253760053407 -0.084933125578070312 -0.093180666448021157 0.17015416018309037 0.16397633068862005 0.20740189625367803 0.23419909500628427 -0.098204821752284635 -0.039172353111258829 0.13075958070143459 0.16528210919122735 -0.076157330224521314 -0.086068778399472634 0.17125830625444149 0.030456393709967416 0.094382028274541452 -0.093495695278650939 -0.046054267805045429
leaf_weight=22327.983529537916 137.52038450539112 448.38415893912315 4978.5227313786745 7.1397820413112631 47.780698642134666 619.34419134259224 1900.1065100952983 211.69896160066128 62.481089651584625 194.16556245088577 298.17964109778404 131.46686348319054 1112.3113376200199 196.89202490448952 835.18180055916309 1129.109917640686 527.75791302323341 128.4447129368782 13528.321123734117 24.987270757555962 555.20882903039455 266.76193253695965 223.15917637944221 125.54030227661133 37.018516719341278 115.6062435656786 81.378186613321304 106.31522785127163 19409.34538026154 363.13275676965714
leaf_count=150872 926 1721 30951 51 195 2494 14354 1124 311 1298 1196 754 4324 1332 6438 5147 2385 638 51972 135 3816 1405 1021 861 245 537 452 539 148021 2606
internal_value=-0.000210938 0.0440333 -0.0538527 -0.0851036 0.200726 0.112993 0.014897 0.0420924 0.229764 0.158984 0.0955356 0.123088 0.186841 0.136609 -0.0790924 0.145681 0.215097 0.0700033 0.232952 0.157632 0.0154072 0.0211844 0.0701748 0.0287374 0.129519 0.0820354 0.115712 0.19672 -0.0923857 -0.0342024
internal_weight=70131.2 47803.3 29422.8 20228 18380.4 4570.72 9194.84 7294.73 13809.7 3687.76 1125.14 930.971 2562.62 922.551 882.962 1494.24 1640.07 365.131 13672.2 153.432 5800.49 5245.28 632.791 372.613 260.178 247.073 143.859 725.659 19779.6 370.273
internal_count=438121 287249 209969 152399 77280 23619 57570 43216 53661 16986 5912 4614 11074 4365 6633 7044 6709 1897 52735 773 36172 32356 3418 2152 1266 1291 763 3033 150678 2657
is_linear=0
shrinkage=0.1


Tree=17
num_leaves=31
num_cat=0
split_feature=42 31 4 29 31 26 1 19 18 2 33 17 24 30 40 1 1 17 1 2 33 30 1 31 25 35 17 20 32 20
split_gain=136118 16924.3 986.314 445.543 1004.22 296.282 219.7 138.081 228.561 76.2649 16.0741 26.2931 8.27827 521.842 5.89053 20.3824 2.22099 2.07725 1.18841 1.11433 0.553046 0.397266 37.8773 0.23184 46.8977 0.229515 0.215077 0.206512 0.191116 0.137065
threshold=1.0000000180025095e-35 0.99998252626059558 0.0035852272727272005 0.0058139534883720912 0.99998249709064824 0.12761566905726676 0.66276875729410323 2.2888132953252538e-08 7.3781960500951548e-07 8.5305393308042816e-05 0.0087468341487840131 0.21399065652341989 2.2888132953398228e-08 0.99999926689986107 1.0000000180025095e-35 1.2500426478656569e-08 0.0011095586877772278 1.0246625741236819e-06 9.7086645606259147e-07 0.0029154372654101005 0.73247099483693967 0.99999926669754979 0.50360304792398514 0.99998249709064824 1.2516581549860963e-08 0.011604320337197003 0.13122833897102357 2.0834044121842424e-08 0.63323654786821681 3.6251236771450706e-07
decision_type=2 2 2 2 2 2 2 2 2 2 2 2 2 2 2 2 2 2 2 2 2 2 2 2 2 2 2 2 2 2
left_child=14 2 3 12 7 10 -6 21 -9 -7 11 -3 23 16 19 -16 20 18 -10 25 -14 28 -23 -2 -25 -1 -11 -19 -5 -30
right_child=1 5 -4 4 6 9 -8 8 17 26 -12 -13 13 -15 15 -17 -18 27 -20 -21 -22 22 -24 24 -26 -27 -28 -29 29 -31
leaf_value=-0.095718119040658897 0.23559569704194672 0.2195596090275958 -0.095691199755855438 0.25696217058018356 -0.0962735474467485 -0.099872241344593785 0.23567891117031206 0.23420993287698103 -0.076978043243423513 0.23696595873493465 -0.095636745113527447 -0.098582118441647895 0.23618694500193774 -0.099139934001162722 0.094880284167330534 -0.09276089341296942 0.16716787038578318 -0.074478721112395369 0.0044422645424097218 -0.034718397307305325 0.20521018660743176 -0.052790284189935581 0.23567891117031206 -0.095819059957165359 0.23567871391339171 -0.096156909899058507 0.2150545394348797 -0.099716630694514335 0.2363020846705485 0.25222330106088331
leaf_weight=25022.511158704758 16277.930262640119 4.2739348560571653 92.475363746285439 4.7337449193000785 151.98045235872269 8.5132760107517225 22.948415040969849 54.23378013074398 3.6486505419015876 29.914198577404022 1760.6163492053747 6.6238745748996735 2280.7224700152874 47.431782573461533 7.209819719195365 29.374395757913589 4.6825570464134207 3.6806972920894649 3.5242146402597427 2.9744872748851767 5.7781367301940909 4.614148572087287 336.66367974877357 4.29184865951538 757.29793611168861 22766.124929748476 5.268759846687316 27.213635072112083 233.3457083106041 5.5355096459388724
leaf_count=176736 62421 19 508 19 872 54 88 209 21 115 9973 33 8755 221 34 162 20 23 20 20 23 21 1291 24 2904 172423 20 174 896 22
internal_value=-0.000998243 0.204018 0.230149 0.231638 0.160868 -0.0885422 -0.0527257 0.216043 0.102373 0.168698 -0.0948873 0.0261876 0.23475 0.229171 -0.0958926 -0.0557816 0.235968 -0.085454 -0.0369741 -0.0959233 0.236109 0.233981 0.231779 0.235516 0.233811 -0.0959272 0.233685 -0.0967098 0.237065 0.236671
internal_weight=69966.1 22137.9 20322.7 20230.3 852.123 1815.21 174.929 677.194 92.301 43.6962 1771.51 10.8978 19378.1 2338.61 47828.2 36.5842 2291.18 38.0672 7.17287 47791.6 2286.5 584.893 341.278 17039.5 761.59 47788.6 35.183 30.8943 243.615 238.881
internal_count=438121 88746 78532 78024 3656 10214 960 2696 447 189 10025 52 74368 9019 349375 196 8798 238 41 349179 8778 2249 1312 65349 2928 349159 135 197 937 918
is_linear=0
shrinkage=0.1


Tree=18
num_leaves=31
num_cat=0
split_feature=33 41 32 0 6 42 14 42 2 14 30 2 15 31 23 14 22 0 31 4 33 4 18 9 21 16 9 19 30 1
split_gain=83126.3 14631.1 4306.17 1818.7 1164.34 6089.72 1915.86 881.464 315.804 180.733 313.065 2153.16 258.404 375.682 224.447 141.935 135.74 77.2557 74.5793 71.314 60.0455 345.559 50.5195 46.9002 75.5364 45.6767 45.5818 44.0471 796.842 104.537
threshold=0.0050925875654626871 1.0000000180025095e-35 0.62323100100399575 1.0000000180025095e-35 0.084197254132810262 1.0000000180025095e-35 0.63111269202164888 1.0000000180025095e-35 1.505389293671344e-05 0.34541928368705083 0.99999926646465676 1.0000000180025095e-35 0.079717410014283965 0.99998257989566008 0.039601262610264538 1.0000000180025095e-35 0.00030929880553438703 1.0000000180025095e-35 0.99998249709064824 0.0012244318181818001 0.012176077196901761 0.00051704545454540017 1.8799810274508848e-06 0.17188786770911876 0.0062477346152518863 0.15688348179636008 0.016105240372156753 2.2888132953252538e-08 0.99999926691868068 0.12593593818109097
decision_type=2 2 2 2 2 2 2 2 2 2 2 2 2 2 2 2 2 2 2 2 2 2 2 2 2 2 2 2 2 2
left_child=1 3 9 -1 5 6 25 18 -8 10 17 -12 20 15 -15 16 22 -2 -4 27 21 -13 -14 -17 -25 26 -5 -7 -29 -30
right_child=2 -3 7 4 -6 19 8 -9 -10 -11 11 12 13 14 -16 23 -18 -19 -20 -21 -22 -23 -24 24 -26 -27 -28 28 29 -31
leaf_value=0.19053304466645199 -0.10683712886052579 0.19284244087997565 0.18068850134891268 0.18720802687273747 -0.094367980348791944 -0.093719687384285877 -0.093683765297007601 -0.0940855872786934 0.18634197445229062 0.19287685771820715 -0.087347880778710835 -0.11126456518358481 -0.10176345428887107 -0.09370613623517865 0.1749233139895161 0.18937542254007367 -0.092321045825812659 0.19267434789101032 -0.027589965179084627 0.1953714539109549 0.19226366738134917 0.19402242945593717 0.18539522069387665 0.19704668289512639 -0.095138820837738003 -0.053446705692013124 -0.010889504251955085 -0.094044612047150936 0.32456631754563048 -0.11212141818327422
leaf_weight=239.30196771025658 8.6295838654041273 1986.6889123022556 154.66926574707031 1201.459149107337 35244.808261752129 7188.7732325047255 375.82187070697546 696.33312632143497 45.107443243265152 10062.996897086501 340.91451150178909 44.63709981739521 7.0168788582086554 109.69868540018797 43.412203013896942 448.27209821343422 40.314738593995571 4224.5337961316109 19.342080324888229 8.7057070732116681 2775.3303317129612 218.91687270998955 48.283858999609947 20.482596844434738 15.57644686847925 8.0672229528427106 11.728775478899477 933.77878055721521 54.371503353118896 6.0965040624141684
leaf_count=606 45 5023 405 3102 299515 62709 2817 6049 119 25379 2668 252 45 867 131 1146 244 10632 135 22 7016 552 129 52 127 39 65 8026 176 28
internal_value=-0.00144379 -0.0727748 0.173577 -0.0844191 -0.0858787 -0.0554531 0.120304 -0.0437776 -0.0636758 0.183853 0.172973 0.153324 0.175077 0.121786 -0.0175404 0.158569 0.047227 0.192064 0.157537 -0.0906869 0.187932 0.142317 0.148959 0.18055 0.0708311 0.183716 0.185293 -0.0909912 -0.0712632 0.280539
internal_weight=66584.1 47304.7 19279.4 45318 45078.7 9833.91 1642.18 870.344 420.929 18409 8346.02 4112.86 3771.94 733.058 153.111 579.947 95.6155 4233.16 174.011 8191.73 3038.88 263.554 55.3007 484.331 36.059 1221.26 1213.19 8183.02 994.247 60.468
internal_count=438121 382247 55874 377224 376618 77103 6142 6589 2936 49285 23906 13229 10561 2741 998 1743 418 10677 540 70961 7820 804 174 1325 179 3206 3167 70939 8230 204
is_linear=0
shrinkage=0.1


Tree=19
num_leaves=31
num_cat=0
split_feature=34 14 19 30 30 30 14 4 34 20 44 4 4 14 6 7 19 30 21 6 44 6 6 14 1 30 22 1 1 4
split_gain=49426 3381.45 4040.04 1112.65 1001.81 669.897 638.207 2335.09 2394.86 710.651 750.601 614.379 592.861 433.152 406.68 369.24 350.194 341.757 268.205 264.256 244.129 350.273 212.663 188.086 176.47 169.189 166.496 241.89 163.717 151.156
threshold=0.29959239130434784 0.99797749373479383 6.4849710034072999e-07 0.9999992663211571 0.9999992663211571 0.99999926630939495 0.56470389154132716 0.0041874999999999508 0.0067934782608695008 0.00021186139467125473 0.10984347946738572 0.013386363636363601 0.016460227272727203 0.82057623737858842 0.14583917063603249 0.61262376237623772 2.2888132953252538e-08 0.98999927557279654 1.5031236796046734e-06 0.12874754833286636 0.53970926434921007 0.40557579153824602 0.40557579153824602 0.9933202589569764 3.7084598537157071e-07 0.99999927235755559 7.0381482354473649e-06 0.00038170468915831734 1.0000000180025095e-35 0.016096590909090856
decision_type=2 2 2 2 2 2 2 2 2 2 2 2 2 2 2 2 2 2 2 2 2 2 2 2 2 2 2 2 2 2
left_child=6 2 4 17 5 -2 -1 8 -8 -9 26 14 22 18 19 -13 -10 -3 -4 -6 21 23 29 -17 -18 -21 -11 -28 -14 -5
right_child=1 3 13 12 11 -7 7 9 16 10 -12 15 28 -15 -16 20 24 -19 -20 25 -22 -23 -24 -25 -26 -27 27 -29 -30 -31
leaf_value=-0.093698962879918329 -0.015165350198369773 0.092535671060251443 0.04777559784323996 0.16665182162385284 0.52751808647453025 0.12384528999053371 -0.094010693447422522 -0.087012303172213645 0.10203097571985711 0.20837632937838668 -0.082439979712408865 -0.086960483717280712 0.14052035200621993 0.16578773919575696 0.15564197796785367 -0.035582383700238224 0.20598280767819244 0.16237027011735605 0.15922184374234857 -0.025684209867018522 -0.012826878542547843 0.12709780478129248 0.16674307216143169 0.053555166501253908 0.42877674241927322 0.54261334615878221 -0.046601308717600015 0.17348915609241847 0.088758225984256048 0.049783083975953379
leaf_weight=20885.089275784791 488.20245641469955 832.78213898837566 631.80557785183191 170.78458169102669 9.2501190304756147 1195.7632714360952 662.76073703169823 11123.450924985111 499.38170897960663 138.26504945755005 367.55459576845169 575.46553441882133 639.918836414814 2310.2883271276951 391.72359968721867 511.33069986104965 346.67160026729107 4420.752618059516 328.07037319242954 287.78713205456734 5326.1905450820923 316.63265284895897 1556.7694968283176 440.77868793904781 39.614467963576317 5.3358038514852515 97.91919481754303 101.90498807281256 13539.542096152902 314.40757617354393
leaf_count=160200 3190 3967 3288 729 61 5000 4077 94742 2056 623 3037 4791 2642 8949 1560 3337 1451 16786 1303 1980 35904 1389 5815 2533 259 36 732 530 65525 1629
internal_value=0.00217151 0.0870423 0.0463989 0.111303 0.0135448 0.0835444 -0.082776 -0.065723 0.0497536 -0.0808389 0.016476 -0.00144374 0.0983491 0.142329 0.0883911 -0.0101398 0.157335 0.1513 0.0858662 0.00126763 -0.0034365 0.0359844 0.148727 0.00568381 0.228831 -0.0153393 0.124013 0.0656389 0.0910942 0.0909201
internal_weight=68556.2 34293.6 12818.6 21475 9548.46 1683.97 34262.6 13377.5 1548.43 11829.1 705.644 7864.49 16221.4 3270.16 694.097 7170.4 885.668 5253.53 959.876 302.373 6594.93 1268.74 2041.96 952.109 386.286 293.123 338.089 199.824 14179.5 485.192
internal_count=438121 170414 73321 97093 59781 8190 267707 107507 7843 99664 4922 51591 76340 13540 3637 47954 3766 20753 4591 2077 43163 7259 8173 5870 1710 2016 1885 1262 68167 2358
is_linear=0
shrinkage=0.1


Tree=20
num_leaves=31
num_cat=0
split_feature=34 6 30 30 32 4 6 34 6 19 4 32 14 4 4 8 4 1 30 30 30 30 30 30 30 30 30 30 30 30
split_gain=61975.9 1670.07 1286.03 697.106 644.915 559.769 426.565 341.042 369.858 311.425 290.661 161.689 299.645 160.364 236.983 151.964 163.131 148.456 137.517 138.521 372.84 325.726 288.858 258.471 379.027 191.884 283.502 131.808 387.475 256.504
threshold=0.85631793478260876 0.40781731577472691 0.9999992663211571 0.99999926630939495 0.89071584299131079 0.016278409090909055 0.39885121882880364 0.34816576086956524 0.34085177920986276 7.5530838745544996e-07 0.014460227272727203 0.70751179371395756 0.99970301170734688 0.015539772727272702 0.015551136363636302 0.36814253098499677 0.0059147727272727008 1.3958809561460952e-06 0.99999928019593454 0.99999927631438434 0.99999926710217202 0.99999927077670614 0.99999927079552575 0.9999992668198775 0.99999926652346816 0.99999927969721403 0.99999927996068905 0.99999927461120719 0.99999927467707594 0.99999927598974547
decision_type=2 2 2 2 2 2 2 2 2 2 2 2 2 2 2 2 2 2 2 2 2 2 2 2 2 2 2 2 2 2
left_child=7 5 3 -3 9 6 10 -1 15 -4 -2 -5 -13 -12 -15 16 -9 -11 19 20 23 -22 -23 24 -6 -21 -27 -24 -29 -30
right_child=1 2 4 11 18 -7 -8 8 -10 17 13 12 -14 14 -16 -17 -18 -19 -20 25 21 22 27 -25 -26 26 -28 28 29 -31
leaf_value=-0.09335294092025459 0.22108827971332265 0.11559592999700402 0.060791777940831217 -0.020922299608121645 0.12268911152075049 -0.0075493753651133151 0.13623138746405505 0.11457503374597484 -0.088685385317243154 0.16088350224112302 -0.044025498603951649 0.10319140972875292 0.024666673079732592 0.11937674664587242 0.00505085625012275 0.10753259377847524 -0.052305785202233647 0.046478296569652681 0.061002178443805212 0.17946327441790166 -0.10684660056763017 0.28346421195501609 -0.063453173269563276 0.23616979381360653 0.030232496476304899 -0.097236635182925968 0.13071104332947156 0.29833567050427512 -0.10823961007961241 0.12401573803149996
leaf_weight=33716.984996639192 78.592166021466255 1469.349337503314 2870.6291023045778 478.57474064826965 18161.649030894041 1722.7115026116371 659.13660123944283 77.688698664307594 597.16915229707956 529.00601994991302 274.93555986881256 622.7738136947155 2211.9217706173658 276.71298955380917 525.90270795673132 163.44542707502842 238.10651683807373 144.38157215714455 374.29340341687202 958.80386690795422 122.46469320356846 59.203884929418564 85.318385019898415 194.97821232676506 454.49482336640358 56.807372778654099 1380.0753495544195 61.603963375091553 93.577123388648033 96.678653940558434
leaf_count=270039 363 6421 15598 3116 77149 11371 2842 352 4942 2123 1704 3331 13576 1486 3181 865 1763 773 2004 3809 636 250 430 762 2102 296 5599 297 470 471
internal_value=0.00221858 0.0983101 0.105872 0.0582659 0.11475 0.0332818 0.0720308 -0.091584 -0.0361736 0.0751491 0.035429 0.0328415 0.0419183 0.0218878 0.0444663 0.0292599 -0.0112515 0.136354 0.121101 0.122136 0.119325 0.0357005 0.0797414 0.121632 0.120432 0.144818 0.121699 0.0439704 0.0803605 0.00978117
internal_weight=68758 33964.6 30426.6 4782.62 25644 3537.99 1815.28 34793.4 1076.41 3544.02 1156.14 3313.27 2834.7 1077.55 802.616 479.241 315.795 673.388 22099.9 21725.7 19330 518.847 396.382 18811.1 18616.1 2395.69 1436.88 337.178 251.86 190.256
internal_count=438121 160160 139213 26444 112769 20947 9576 277961 7922 18494 6734 20023 16907 6371 4667 2980 2115 2896 94275 92271 82567 2554 1918 80013 79251 9704 5895 1668 1238 941
is_linear=0
shrinkage=0.1


Tree=21
num_leaves=31
num_cat=0
split_feature=4 8 9 7 2 30 6 49 7 33 1 10 36 4 6 10 20 23 44 19 18 2 14 4 0 24 30 31 3 2
split_gain=84259.7 4498.14 3579.42 2276.65 1142.7 4068.7 1057.76 1041.08 5581.72 406.48 685.318 361.132 301.14 4553.93 240.76 157.723 85.6536 272.344 176.439 342.929 100.342 88.385 67.6606 136.822 220.66 67.4786 103.456 63.9554 469.218 503.221
threshold=0.016761363636363602 0.13681099151989562 0.026859705019696051 0.039356435643564357 1.0000000180025095e-35 0.99999926646465676 0.12342392827122441 0.0062656641604010013 0.21410891089108908 0.051966514159999484 0.014167529182203939 0.037118018967334 0.10939867390255907 0.004994318181818151 0.1231437377416643 0.025592729188619556 0.00014272986946737776 4.5061186045962384e-06 0.10984347946738572 1.0000000180025095e-35 0.0010206546220659174 0.0014702635434856502 0.99976571191616526 0.0041874999999999508 0.67647058823529427 0.0049451108239582913 0.99999926661756633 0.99998250179547843 0.0013426423200859003 1.505389293671344e-05
decision_type=2 2 2 2 2 2 2 2 2 2 2 2 2 2 2 2 2 2 2 2 2 2 2 2 2 2 2 2 2 2
left_child=2 -2 4 9 5 -1 14 12 -9 -4 -11 15 13 22 -3 -12 -16 -18 19 20 -19 -21 25 24 -24 27 -27 -6 29 -29
right_child=1 6 3 -5 7 -7 -8 8 -10 10 11 -13 -14 -15 16 -17 17 18 -20 21 -22 -23 23 -25 -26 26 -28 28 -30 -31
leaf_value=-0.093994978668285017 -0.092914170058813014 -0.094023281832722128 -0.090361602365242349 0.19181076254951124 -0.088327735269189939 0.1786799942050642 -0.095019382238237193 -0.093725140220443315 0.1906324982165668 -0.082900814840498716 -0.095834483905836612 -0.094538862846747923 -0.094549685022802768 0.1899633340901872 0.19305543402208111 0.18559874937293444 -0.076597846257256449 0.16847586024728556 0.1926593970596478 0.19376812828006729 -0.047654036844055454 -0.096076894266243926 -0.094588530646782409 -0.094093962037072376 0.21428464386230206 -0.094377024749710839 0.2307131745295955 -0.094154962532620359 -0.081313208636760892 0.5034850683172184
leaf_weight=1845.7044513076544 590.42432267963886 29.873803004622459 546.7887275069952 786.68364350497723 17119.191610194743 777.84233725070953 131.5020152926445 3251.1585853844881 876.37673626840115 313.11967927962542 21.453848466277122 65.095904797315598 20428.088109530509 617.91959342360497 15179.518251627684 277.3341431543231 42.715237304568291 585.53392820060253 2042.6962851732969 12.304960787296293 22.298880368471146 72.557650469243526 45.651716187596321 143.29196506738663 46.882106974720955 23.214449480175972 16.927076086401939 26.909919142723083 674.11256236582994 29.571401312947273
leaf_count=11339 4034 260 3331 2812 133719 2814 863 27795 3138 1882 121 386 170376 2220 54237 1021 200 2166 7333 44 91 591 269 1241 232 139 70 164 5024 209
internal_value=-0.00126721 0.178712 -0.071517 0.0590858 -0.0772347 -0.0131509 0.187563 -0.0811176 -0.0333491 -0.0262331 0.025561 0.118892 -0.086151 -0.0769976 0.189629 0.165391 0.190101 0.173957 0.17787 0.134257 0.160547 -0.0540498 -0.0860984 -0.0328841 0.0619015 -0.0867999 0.0427086 -0.0870912 -0.058116 0.218746
internal_weight=66642.7 18709.4 47933.3 2010.48 45922.8 2623.55 18119 43299.3 4127.54 1223.79 677.004 363.884 39171.8 18743.7 17987.5 298.788 17957.6 2778.11 2735.39 692.695 607.833 84.8626 18125.8 235.826 92.5338 17889.9 40.1415 17849.8 730.594 56.4813
internal_count=438121 69819 368302 9553 358749 14153 65785 344596 30933 6741 3410 1528 313663 143287 64922 1142 64662 10425 10225 2892 2257 635 141067 1742 501 139325 209 139116 5397 373
is_linear=0
shrinkage=0.1


Tree=22
num_leaves=31
num_cat=0
split_feature=34 4 19 44 6 6 24 19 6 14 6 6 6 4 6 19 30 30 7 4 30 4 4 7 6 30 30 6 4 4
split_gain=24548.5 53743.4 5756.88 3778.93 2981.82 2907.95 2183.21 1417.87 962.352 431.363 294.316 378.797 249.967 217.015 905.939 190.618 150.058 283.915 149.877 131.737 129.809 127.912 174.079 178.586 112.791 110.43 103.405 98.5451 97.2514 194.14
threshold=0.15285326086956516 0.016005681818181804 2.2888132953252538e-08 0.10836275143828826 0.11445783132530117 0.12874754833286636 3.4332199429815111e-07 3.8146888255416381e-08 0.088960493135331956 0.96618617757206549 0.34085177920986276 0.34477444662370421 0.11683945082656201 0.013386363636363601 0.14583917063603249 8.3923154161914682e-08 0.99999927039560854 0.99999926710217202 0.61262376237623772 0.0041874999999999508 0.99999926648112403 0.016414772727272705 0.016278409090909055 0.70024752475247531 0.14499859904735216 0.99999926680576268 0.99999926655640259 0.097086018492574963 0.015551136363636302 0.015539772727272702
decision_type=2 2 2 2 2 2 2 2 2 2 2 2 2 2 2 2 2 2 2 2 2 2 2 2 2 2 2 2 2 2
left_child=-1 4 3 -3 8 12 7 16 -2 13 24 -12 -6 14 -7 -9 17 20 -15 27 -4 22 23 -5 -11 26 -22 -10 29 -13
right_child=1 2 6 21 5 9 -8 15 19 10 11 28 -14 18 -16 -17 -18 -19 -20 -21 25 -23 -24 -25 -26 -27 -28 -29 -30 -31
leaf_value=-0.09316498614202591 -0.085018835536960241 0.19347128704417083 0.0081289271076224103 0.35389266246148482 0.14076195408003719 0.16412757831497327 -0.087330338072180727 0.13174665892608647 0.18615067880259875 0.20029978671087215 0.20019179850528449 0.076769570761062167 -0.087860801247150344 0.19545331418672851 -0.082757262303650381 0.0176764390179493 -0.036089675309350498 0.21398216836852499 0.133396504603398 0.19139433188654598 0.03937552071598497 -0.091657514488343084 0.16626828561038651 -0.069674652508195364 -0.059188371848042778 -0.10475726243348323 0.12447548319170643 0.025201234054848365 0.10959555336717869 -0.074211977070640658
leaf_weight=19993.240854054689 127.95177889615297 481.34937846660614 4018.5859272480011 10.289121538400648 50.971463352441788 763.57932212948799 1728.964525744319 1454.1678539067507 69.660926565527916 18.611639708280563 288.36296153068542 294.19658736884594 774.41592739522457 1199.8310134410858 184.55496311187744 162.9053461253643 534.05199487507343 74.033343344926834 576.03246153891087 14535.928696259856 994.33448550105095 17573.717075243592 39.704548299312592 305.74164972454309 167.55891156941652 47.001184791326523 166.72701394557953 83.808843806385994 277.17820605635643 119.86592807620764
leaf_count=150872 926 1721 24932 51 195 2948 14354 6108 311 76 1048 1439 6525 4324 1332 936 3816 316 2385 51972 6019 148021 234 2372 1220 241 848 452 1266 861
internal_value=-0.000316464 0.0390762 -0.0507767 -0.0830325 0.166002 0.0967396 0.0139081 0.0373974 0.188043 0.132915 0.0820104 0.103915 -0.0737423 0.1547 0.116071 0.120255 0.0144337 0.019524 0.175324 0.190421 0.0167696 -0.0904558 -0.0310894 -0.0558844 -0.0332471 0.0455127 0.0515958 0.0982572 0.0637511 0.0330623
internal_weight=67117.3 47124.1 27591.6 18410.8 19532.5 4715.16 9180.77 7451.81 14817.4 3889.77 1165.77 979.604 825.387 2724 948.134 1617.07 5834.73 5300.68 1775.86 14689.4 5226.65 17929.5 355.735 316.031 186.171 1208.06 1161.06 153.47 691.241 414.063
internal_count=438121 287249 209969 152399 77280 23619 57570 43216 53661 16899 5910 4614 6720 10989 4280 7044 36172 32356 6709 52735 32040 150678 2657 2423 1296 7108 6867 763 3566 2300
is_linear=0
shrinkage=0.1


Tree=23
num_leaves=31
num_cat=0
split_feature=42 31 4 29 31 33 1 19 17 25 40 1 24 30 17 25 1 3 2 33 35 26 30 16 20 23 33 15 1 16
split_gain=105571 11521.9 663.265 277.332 689.074 244.802 172.92 100.427 177.338 89.0701 6.12872 18.3349 4.99726 355.933 2.50699 3.06339 1.9845 1.4287 0.673538 0.50272 0.389489 0.325152 0.252686 29.3471 0.195226 0.177661 0.133818 32.4863 0.109802 0.100991
threshold=1.0000000180025095e-35 0.99998252626059558 0.0035852272727272005 0.0058139534883720912 0.99998249709064824 0.0087468341487840131 0.66276875729410323 2.2888132953252538e-08 7.2072013057762629e-07 0.27455524246671187 1.0000000180025095e-35 1.2500426478656569e-08 2.2888132953398228e-08 0.99999926689986107 1.0246625741236819e-06 2.0860969249768272e-08 0.0011095586877772278 0.11493018259935546 9.5341321932490317e-05 0.73247099483693967 0.011604320337197003 0.14278556827445676 0.99999926669754979 0.075741428417770346 2.0834044121842424e-08 0.1627274352901151 0.019379795549214499 0.63480241689563965 1.2042077502279205e-06 7.32458593081728e-07
decision_type=2 2 2 2 2 2 2 2 2 2 2 2 2 2 2 2 2 2 2 2 2 2 2 2 2 2 2 2 2 2
left_child=10 2 3 12 7 9 -6 22 -9 18 17 -12 26 16 15 -10 19 20 -3 -14 -1 -11 -5 -24 -16 -23 -2 -28 -29 -13
right_child=1 5 -4 4 6 -7 -8 8 14 21 11 29 13 -15 24 -17 -18 -19 -20 -21 -22 25 23 -25 -26 -27 27 28 -30 -31
leaf_value=-0.094035114970332512 0.1927918960083794 -0.097617975133387089 -0.093991748640069539 0.19373890380528599 -0.094785485955216783 -0.093951323570284809 0.19285802788475664 0.19295740208817677 0.022518698046843734 0.21720745154850782 0.086459906941142112 -0.094229976050185404 0.1931467645858938 -0.097110381454791825 -0.075173263666867676 -0.10143649933651547 0.13096833357635915 -0.015807943712238839 -0.046380420382363924 0.16481402139064974 -0.094636858546164104 0.17505299935146873 -0.057660185653031104 0.19291150411086083 -0.099578216349453949 0.19398447061855201 -0.079250206349414917 0.19265111909384447 0.20617487306674886 -0.079593359293335914
leaf_weight=22394.292509965599 17149.133034944534 12.255769357085226 82.660704135894775 261.91591149568558 137.74070917069912 1577.0689326971769 24.637742042541504 57.667596399784088 4.3808311969041807 5.3817584514617911 7.4771665185689917 20.379461787641052 2450.2387499213219 43.046495839953423 3.7306683361530331 3.6590111255645752 5.1557855010032645 2.3176444470882407 3.2448391616344443 6.2785692512989035 20698.577491007745 5.9416576921939841 4.7353840917348853 361.41465365886688 27.00223334133625 29.913346797227859 4.4088443741202346 1134.2312171161175 6.0356257259845725 6.1327743306756011
leaf_count=176749 61250 78 508 937 872 9973 88 206 22 20 34 124 8755 221 23 22 20 14 15 23 172416 21 21 1291 174 107 26 4051 22 38
internal_value=-0.00149691 0.169512 0.188736 0.189813 0.135049 -0.0866093 -0.0511412 0.176778 0.0817666 0.117469 -0.0942864 -0.05184 0.192148 0.187959 -0.08361 -0.0338945 0.192944 -0.0943199 -0.0868921 0.193074 -0.0943241 0.194288 0.191367 0.189671 -0.0966157 0.190847 0.192722 0.191675 0.192723 -0.0908443
internal_weight=66531.1 23401.9 21768.1 21685.4 886.885 1633.81 162.378 724.506 96.4403 56.7374 43129.2 33.9894 20798.5 2504.72 38.7727 8.03984 2461.67 43095.2 15.5006 2456.52 43092.9 41.2368 628.066 366.15 30.7329 35.855 18293.8 1144.68 1140.27 26.5122
internal_count=438121 88746 78532 78024 3656 10214 960 2696 447 241 349375 196 74368 9019 241 44 8798 349179 93 8778 349165 148 2249 1312 197 128 65349 4099 4073 162
is_linear=0
shrinkage=0.1


Tree=24
num_leaves=31
num_cat=0
split_feature=33 41 32 0 6 42 14 42 2 14 30 2 15 10 35 14 22 0 4 31 3 19 30 20 31 30 49 30 30 0
split_gain=65590.3 11902.2 3066.15 1487.95 1090.84 5004.46 1453.57 714.841 259.366 122.43 226.477 1573.4 261.182 261.122 205.605 112.477 112.737 63.0499 58.626 52.2311 55.8913 43.5221 601.673 47.9658 42.6049 263.023 84.8403 39.5902 117.898 48.3105
threshold=0.0050925875654626871 1.0000000180025095e-35 0.62323100100399575 1.0000000180025095e-35 0.084197254132810262 1.0000000180025095e-35 0.63111269202164888 1.0000000180025095e-35 1.505389293671344e-05 0.33307672522420134 0.99999926646465676 1.0000000180025095e-35 0.079717410014283965 0.025592729188619556 0.036762381454162212 1.0000000180025095e-35 0.00062355097602994757 1.0000000180025095e-35 0.0012244318181818001 0.99998249709064824 0.0018796992481202503 2.2888132953252538e-08 0.99999926691868068 0.075241787832328225 0.99998254413895049 0.99999926710217202 0.0037593984962406004 0.99999926661756633 0.99999926669754979 0.67647058823529427
decision_type=2 2 2 2 2 2 2 2 2 2 2 2 2 2 2 2 2 2 2 2 2 2 2 2 2 2 2 2 2 2
left_child=1 3 9 -1 5 6 27 19 -8 10 17 -12 24 15 -15 16 -14 -2 21 -4 -21 -7 -23 -24 25 -13 -27 29 -29 -5
right_child=2 -3 7 4 -6 18 8 -9 -10 -11 11 12 13 14 -16 -17 -18 -19 -20 20 -22 22 23 -25 -26 26 -28 28 -30 -31
leaf_value=0.16329757041423751 -0.10644122706660374 0.16545019513992662 0.15339105772606701 0.16632894805998441 -0.092989797441388869 -0.092198459182179962 -0.092304015099896733 -0.092648754227828908 0.15866360254344045 0.16535553446819906 -0.084907005631114002 0.16738136921129554 0.12180477344682768 -0.095963137563088774 0.17846729352881782 0.1617927560930745 -0.10029636720611507 0.16545154066860915 0.16759628183419076 -0.095744632208807592 0.39603072184042387 -0.092505314940056982 0.24220368422164584 -0.015870609829265386 0.16580255608702266 -0.11320452103476662 0.1666422096310507 -0.10913176920886639 0.14294237106722515 -0.065574882506929874
leaf_weight=244.18230548501015 8.5458531379699689 2026.7064094692469 159.10434260964394 1058.2433349490166 31720.608132503927 6384.643151730299 349.79201328009367 619.99196819961071 46.673889935016632 10526.616393215954 309.0360943377018 320.24495102465153 59.39713779091835 110.65873848646879 36.24155855178833 275.24572731554508 37.147421091794968 4278.4197436571121 8.894379794597624 15.833639591932299 2.7060236036777487 829.4806809797883 62.109658420085907 8.1464157253503782 2684.2917673513293 50.934271678328514 13.759959697723387 20.970061540603638 161.07653072476387 9.0599901378154737
leaf_count=606 45 5023 405 2619 299515 62709 2817 6049 119 26099 2668 793 184 942 91 697 234 10572 22 123 12 8026 170 34 6648 278 34 110 446 31
internal_value=-0.00200588 -0.0710963 0.150038 -0.0828167 -0.0842947 -0.0534399 0.104068 -0.0419748 -0.0627589 0.158223 0.149049 0.131601 0.150249 0.0846182 -0.0282588 0.129218 0.036347 0.16491 -0.0889835 0.134881 -0.0239658 -0.0892968 -0.0687062 0.212279 0.161341 0.130228 -0.0536833 0.157008 0.113906 0.16436
internal_weight=62438.8 42930.6 19508.2 40903.9 40659.7 8939.09 1645.82 797.636 396.466 18710.5 8183.92 3896.96 3587.92 518.691 146.9 371.79 96.5446 4286.97 7293.27 177.644 18.5397 7284.38 899.737 70.2561 3069.23 384.939 64.6942 1249.35 182.047 1067.3
internal_count=438121 382247 55874 377224 376618 77103 6142 6589 2936 49285 23186 12569 9901 2148 1033 1115 418 10617 70961 540 135 70939 8230 204 7753 1105 312 3206 556 2650
is_linear=0
shrinkage=0.1


Tree=25
num_leaves=31
num_cat=0
split_feature=34 14 19 30 30 14 4 34 20 44 30 7 4 19 7 7 30 30 30 44 6 44 6 8 14 6 6 1 15 30
split_gain=40041.6 2344.15 2925.06 775.708 762.945 631.145 1988.36 1770.68 646.347 594.596 503.789 468.105 411.9 336.607 313.795 305.029 242.881 223.588 188.496 186.802 250.016 162.774 363.753 148.75 145.147 144.697 144.429 133.528 167.969 132.217
threshold=0.29959239130434784 0.99797749373479383 6.4849710034072999e-07 0.9999992663211571 0.9999992663211571 0.56470389154132716 0.0041874999999999508 0.0067934782608695008 0.00021186139467125473 0.10984347946738572 0.99999926630939495 0.56386138613861403 0.016460227272727203 7.4004963215328612e-07 0.25767326732673268 0.61262376237623772 0.98999927557279654 0.99999926648112403 0.99999927104018116 0.53970926434921007 0.40557579153824602 0.14957631126336698 0.1231437377416643 0.15631523157208088 0.9933202589569764 0.12874754833286636 0.40557579153824602 1.3958809561460952e-06 0.69385815969053444 0.99999928019593454
decision_type=2 2 2 2 2 2 2 2 2 2 2 2 2 2 2 2 2 2 2 2 2 2 2 2 2 2 2 2 2 2
left_child=5 2 3 10 16 -1 7 -7 21 -10 -2 14 26 -4 25 -13 -3 -9 -19 20 24 -8 23 -23 -17 -5 -6 28 -15 -14
right_child=1 4 13 11 12 6 8 17 9 -11 -12 15 29 27 -16 19 -18 18 -20 -21 -22 22 -24 -25 -26 -27 -28 -29 -30 -31
leaf_value=-0.092173670849976727 -0.013787669580972762 0.078850530767912971 0.14486475206984267 0.32395103489477339 0.078713122787733875 -0.092594152763570067 -0.087227007183423563 0.16543433415462694 0.10777417938358132 -0.079612309835713505 0.10653915840179891 -0.081328854122900598 0.076763286467711217 -0.016641382737554979 0.13654665959114518 -0.032436872473736715 0.13618264403531541 0.028836306271276254 0.20622443242054944 -0.010961566114464789 0.10526680372211805 0.026476529013899075 -0.076815431779429511 0.280907606943543 0.045678899838007034 -0.013764767954532681 0.1398728965629121 0.13408827541994206 0.083731085951674861 0.13214395058414183
leaf_weight=18577.03291426599 481.48040203750134 878.62946555018425 2138.1236445456743 13.268392682075499 506.05102173984051 593.32959885150194 9591.1000211164355 590.11095359921455 346.52820675820112 331.15794153511524 1254.7026854306459 531.63563441485167 14451.638293921947 215.58094196021557 392.3073618710041 492.90781269967556 4647.0778587609529 287.93261054158211 75.640646144747734 5234.0836536884308 338.91799873113632 46.262996919453144 276.15694838017225 45.654241472482681 459.70655211806297 289.49011151492596 1629.2354239523411 338.85587453842163 735.67786511778831 444.34808337688446
leaf_count=160200 3190 3967 7769 61 2358 4077 91857 2256 1885 3037 5000 4880 66504 1346 1432 3337 16786 1225 285 35904 1389 287 2388 210 2533 2055 5815 1259 3166 1663
internal_value=0.00292287 0.0753263 0.0413557 0.0127517 0.0947788 -0.0805734 -0.0628861 0.0430427 -0.0782923 0.0162059 0.07317 -0.000779373 0.0843033 0.120525 0.0775204 -0.00849109 0.127066 0.127428 0.0657415 -0.00255707 0.0315031 -0.0847225 -0.0194624 0.15285 0.00525974 0.00103563 0.125378 0.0801852 0.060984 0.0784153
internal_weight=66234.6 35473.7 12916.7 9488.5 22557 30760.9 12183.9 1547.01 10636.9 677.686 1736.18 7752.32 17031.3 3428.24 695.066 7057.25 5525.71 953.684 363.573 6525.62 1291.53 9959.17 368.074 91.9172 952.614 302.759 2135.29 1290.11 951.259 14896
internal_count=438121 170414 73321 59781 97093 267707 107507 7843 99664 4922 8190 51591 76340 13540 3548 48043 20753 3766 1510 43163 7259 94742 2885 497 5870 2116 8173 5771 4512 68167
is_linear=0
shrinkage=0.1


Tree=26
num_leaves=31
num_cat=0
split_feature=34 6 30 30 4 32 34 7 6 18 14 14 8 4 1 32 14 4 4 4 1 32 1 14 30 19 1 30 14 30
split_gain=50109.8 1150.64 814.34 450.519 401.414 398.847 321.321 348.387 303.296 221.782 161.283 441.014 151.475 148.427 135.06 134.809 224.906 133.48 131.915 168.867 121.756 115.563 141.889 108.904 130.328 100.685 98.3401 98.2455 91.8102 79.8618
threshold=0.84069293478260876 0.40781731577472691 0.9999992663211571 0.99999926630939495 0.016278409090909055 0.89071584299131079 0.34816576086956524 0.59034653465346543 0.39885121882880364 4.0434181743792546e-07 0.82648061087156133 0.88526959899108981 0.36814253098499677 0.014460227272727203 2.9167661775436619e-08 0.70751179371395756 0.99976571191616526 0.0059147727272727008 0.015539772727272702 0.015551136363636302 4.0418045595819191e-07 0.89071584299131079 3.7501279425561369e-08 0.99970301170734688 0.99999928019593454 6.7901461094506445e-07 4.0418045595819191e-07 0.9999992663211571 0.77149182400989458 0.99999926630939495
decision_type=2 2 2 2 2 2 2 2 2 2 2 2 2 2 2 2 2 2 2 2 2 2 2 2 2 2 2 2 2 2
left_child=6 4 3 21 8 9 -1 12 13 10 -4 -12 17 -2 -13 20 -17 -8 -15 -20 -5 22 -3 -7 -25 -24 -27 29 -11 -6
right_child=1 2 5 15 27 23 7 -9 -10 28 11 14 -14 18 -16 16 -18 -19 19 -21 -22 -23 25 24 -26 26 -28 -29 -30 -31
leaf_value=-0.091801818016583325 0.13975541103843842 -0.079864738383800857 0.010095222284104154 -0.052272639995558957 0.032973114455848322 0.11155325139170724 0.099877944040256586 -0.088765367553698973 0.11405087967300952 0.037545911901794321 0.15683647631431571 0.057924999709360915 0.1132964984288426 -0.041320404826885794 -0.01093643865893971 0.086049140830694384 0.022836791946727039 -0.049215991686133408 0.099801742777297531 0.0055141233231792118 0.058526205070763039 0.10754932469141845 0.1951196299556639 0.098148887746382224 0.030569705733940796 -0.094636890568549029 0.12833970045066576 0.0091101632428442127 0.12009745397863079 -0.068882833902647295
leaf_weight=30019.169810146093 114.16941857337952 77.314805328845978 704.78330673277378 322.57121822237968 99.4677754342556 7462.0837962478399 81.691257908940315 533.7308022454381 701.02300190925598 160.99984994530678 419.24911385774612 1175.9516023993492 148.22770476341248 265.91426790505648 375.85724146664143 769.26593056321144 2097.6806831806898 226.64372424781322 298.04340799152851 523.72998589277267 143.21213454008102 1349.8471911847591 54.38342410326004 15665.596856594086 290.66807718575001 39.024279043078423 40.107974022626877 1247.2014283835888 825.44296407699585 340.45803380012512
leaf_count=270039 535 358 4479 2258 491 28978 352 4902 2842 854 1539 6369 732 1704 1995 3992 12915 1763 1486 3181 858 5461 232 63721 1576 189 181 8351 3258 2530
internal_value=0.00295847 0.083971 0.0899982 0.0524553 0.0302907 0.0967821 -0.089953 -0.0339076 0.0617767 0.0660936 0.0511521 0.0658327 0.0302222 0.031286 0.0412464 0.0316914 0.0397981 -0.00971457 0.0199005 0.0397107 -0.0182059 0.0967951 0.0279412 0.101581 0.0969178 0.0903683 0.0183782 -0.00522174 0.106624 -0.0458531
internal_weight=66573.5 35564 31974 4893.41 3590.01 27080.6 31009.5 990.293 1902.88 3662.28 2675.84 1971.06 456.563 1201.86 1551.81 3332.73 2866.95 308.335 1087.69 821.773 465.783 1560.68 210.83 23418.3 15956.3 133.516 79.1323 1687.13 986.443 439.926
internal_count=438121 160333 139213 26444 21120 112769 277788 7749 9748 18494 14382 9903 2847 6906 8364 20023 16907 2115 6371 4667 3116 6421 960 94275 65297 602 370 11372 4112 3021
is_linear=0
shrinkage=0.1


Tree=27
num_leaves=31
num_cat=0
split_feature=4 8 9 7 35 6 2 30 6 18 1 6 10 10 14 35 6 7 6 14 8 7 31 3 2 26 15 20 23 44
split_gain=66234.7 3259.98 3087.51 1682.58 1078.93 8250.4 1142.15 3194.62 782.385 351.731 689.512 173.538 144.941 98.292 85.0338 736.876 277.812 500.806 1138.94 192.112 92.9993 398.642 72.9741 360.957 248.822 125.246 71.9555 66.306 220.327 129.044
threshold=0.016761363636363602 0.13681099151989562 0.026859705019696051 0.039356435643564357 0.011604320337197003 0.1231437377416643 1.0000000180025095e-35 0.99999926646465676 0.12342392827122441 0.043443689553555702 0.014167529182203939 0.1231437377416643 0.037118018967334 0.025592729188619556 0.66882170594155388 0.00026343519494200006 0.10325021014289716 0.039356435643564357 0.022695432894368105 0.93629239415290944 0.057720881351018306 0.074999999999999969 0.99998250179547843 0.0013426423200859003 1.505389293671344e-05 0.22422954771861717 0.013628300324309396 0.00014272986946737776 4.5061186045962384e-06 0.10984347946738572
decision_type=2 2 2 2 2 2 2 2 2 2 2 2 2 2 2 2 2 2 2 2 2 2 2 2 2 2 2 2 2 2
left_child=2 -2 4 9 5 6 7 -1 11 10 -4 -3 13 -12 22 -16 17 -17 -19 20 21 -20 25 24 -24 -8 -6 -13 -29 -30
right_child=1 8 3 -5 26 -7 14 -9 -10 -11 12 27 -14 -15 15 16 -18 18 19 -21 -22 -23 23 -25 -26 -27 -28 28 29 -31
leaf_value=-0.092512974624440941 -0.09130572695913558 -0.09255269887999662 -0.080705392630695705 0.16471820627489664 0.27202066588429002 0.16427924880593414 -0.089993882603054187 0.1510570237661058 -0.093872997696015925 -0.090364686859195076 -0.08403146804625497 0.1658165406813692 -0.093244857112058765 0.15800670844915363 0.29266662075111993 -0.092386136948474626 -0.092388620636600041 0.5026977454690521 -0.095487538738505046 0.20189198614623441 -0.060283417771961056 0.63418955733015214 -0.092643252706946455 -0.07986881817010931 0.31089254033260233 0.61096892886797871 -0.093317102475879876 -0.076930509912471093 0.11561424266331483 0.16511289563422205
